<?xml version="1.0"?>
<opencv_storage>
<opencv_ml_svm>
  <format>3</format>
  <svmType>C_SVC</svmType>
  <kernel>
    <type>LINEAR</type></kernel>
  <C>2.6699999999999999e+00</C>
  <term_criteria><epsilon>1.1920928955078125e-07</epsilon>
    <iterations>1000</iterations></term_criteria>
  <var_count>3780</var_count>
  <class_count>2</class_count>
  <class_labels type_id="opencv-matrix">
    <rows>2</rows>
    <cols>1</cols>
    <dt>i</dt>
    <data>
      -1082130432 1065353216</data></class_labels>
  <sv_total>1</sv_total>
  <support_vectors>
    <_>
      8.95944773e-04 1.54968293e-04 1.05114211e-03 9.98953241e-04
      3.04724579e-03 1.22018985e-03 1.35023869e-03 3.24188848e-04
      3.93665221e-04 2.90471199e-03 1.57432922e-03 1.67896447e-03
      2.63887970e-03 -3.12461448e-03 2.20439280e-03 2.24178401e-03
      1.55625085e-03 2.45412835e-03 1.24459364e-03 1.16387266e-04
      1.81780226e-04 4.58071794e-04 2.79852585e-03 1.64834934e-03
      7.10656925e-04 2.93327786e-04 9.11973242e-04 2.75952369e-03
      6.99273951e-04 6.54215226e-04 2.01416132e-03 -3.12461448e-03
      1.85882486e-03 2.59868312e-03 3.12920404e-03 3.06322891e-03
      2.60592485e-03 1.95386633e-03 1.22417952e-03 1.94343680e-03
      -1.06274858e-02 2.01903074e-03 1.08291558e-03 1.15693733e-03
      3.27555649e-03 2.26081465e-03 -9.29221642e-05 -6.01057475e-03
      -1.00227343e-02 -4.39278875e-03 -8.12435523e-04 2.35394621e-03
      3.14103672e-04 7.07471371e-03 7.21508753e-04 9.67385713e-04
      7.71557214e-04 1.86409114e-03 -9.81820188e-03 7.05812185e-04
      2.29901494e-03 2.20787688e-03 1.04052876e-03 2.04132916e-03
      1.82200572e-03 -8.80951586e-04 -7.27278832e-03 -2.09385790e-02
      -6.66919956e-03 1.00600929e-03 -1.07553625e-03 2.19932685e-04
      7.76904123e-03 1.12876529e-03 -1.00064939e-02 -5.62074780e-03
      -1.30200095e-03 2.31865048e-03 7.87496381e-03 7.70087074e-03
      9.86863021e-03 -1.72470743e-03 -1.15422010e-02 -3.58893611e-02
      -2.34066434e-02 1.19703747e-02 3.24362912e-03 1.10298423e-02
      1.19476318e-02 2.75986828e-03 1.04200924e-02 1.73115451e-03
      -4.90210671e-03 -4.97116894e-03 -1.34126963e-02 -7.49385171e-03
      3.43677890e-03 6.10050559e-03 7.94965588e-03 1.00572836e-02
      -8.26257281e-04 -2.81594414e-02 -4.26858403e-02 3.84832779e-03
      -2.56789420e-02 1.18830400e-02 1.89810228e-02 1.96470898e-02
      -1.25088440e-02 -2.05165781e-02 -2.03658696e-02 -6.68184320e-03
      2.08160877e-02 1.59035716e-02 1.50004271e-02 4.83682659e-03
      -6.97571132e-03 -3.22179054e-03 -1.65260956e-03 -3.10937467e-04
      -2.45921151e-03 -1.24538573e-03 6.02131570e-03 3.03005446e-02
      3.57054658e-02 1.06581971e-02 5.06754906e-04 -1.32802948e-02
      -1.71060748e-02 -1.92372557e-02 1.48723554e-02 -4.17229859e-03
      1.31844999e-02 6.68672891e-03 1.00404043e-02 2.14856560e-03
      -5.06694196e-03 -4.65950463e-03 -2.53856517e-02 -3.46369818e-02
      -1.40148876e-02 1.84251741e-02 1.27603114e-02 -6.69924193e-05
      -7.91534502e-03 3.12465918e-03 1.66795589e-02 8.07542354e-03
      1.18246004e-02 6.58435049e-03 1.84260868e-02 1.31141786e-02
      -4.85176546e-03 -3.12004369e-02 -9.89181269e-03 8.74401070e-03
      -4.51000966e-03 4.72590663e-02 1.17306700e-02 7.47358892e-03
      -1.87735306e-03 -2.28236783e-02 -2.00441992e-03 -3.45611642e-03
      8.23315792e-03 -8.86945811e-04 4.74692264e-04 -7.99112581e-03
      7.53006432e-03 3.04856501e-03 -1.25500280e-02 -2.06933636e-02
      -3.15973237e-02 -1.18225673e-02 -1.39435222e-02 2.03869585e-02
      3.14246630e-03 -1.80306961e-03 -6.48523355e-03 -2.63505001e-02
      -2.29330193e-02 6.38796994e-03 1.29439253e-02 -6.72785426e-03
      5.21050468e-02 2.06965506e-02 4.32386342e-03 -5.25537739e-03
      -2.19993833e-02 -3.05104274e-02 2.00741328e-02 2.50745621e-02
      3.30743566e-03 5.17676696e-02 2.46331804e-02 8.54584947e-03
      -2.36799754e-02 -3.45014110e-02 -2.03284472e-02 -6.88966876e-03
      5.17146802e-03 4.80817538e-03 2.77119894e-02 1.58702433e-02
      -2.69000139e-03 1.80524704e-03 -2.42403075e-02 -2.82318294e-02
      8.34561888e-06 2.27850433e-02 1.91479288e-02 3.76801193e-02
      5.96423494e-03 -9.86116659e-03 -2.99801044e-02 -2.69155037e-02
      -2.37254053e-02 2.15263106e-02 2.30900887e-02 1.20705580e-02
      3.97498868e-02 2.23916247e-02 1.55273778e-02 -1.94156226e-02
      -3.20215449e-02 -2.43336130e-02 1.41895246e-02 2.56300289e-02
      1.95974316e-02 3.30815092e-02 2.31996682e-02 1.83438379e-02
      -1.21008428e-02 -3.55309844e-02 -2.19682083e-02 -6.79495744e-03
      8.56005028e-03 1.65424012e-02 3.05669419e-02 9.64138284e-03
      -2.25438620e-03 -1.81644522e-02 -2.70352364e-02 -2.63166875e-02
      -1.21258786e-02 6.46534143e-03 1.48195345e-02 2.45166533e-02
      1.36840828e-02 -6.22039661e-03 -3.20278741e-02 -3.31795588e-02
      -3.38773802e-02 1.08422879e-02 3.08482796e-02 2.78077591e-02
      3.43124308e-02 1.58508290e-02 1.74127445e-02 7.85761105e-04
      -4.02840190e-02 -2.63771210e-02 1.39383962e-02 2.89683361e-02
      2.74257418e-02 2.93951258e-02 9.87943634e-03 1.53487734e-02
      -4.59249178e-03 -3.34105864e-02 -2.85114422e-02 1.08331896e-03
      2.98634730e-02 2.87107471e-02 2.59236004e-02 5.05512021e-03
      -6.35596272e-03 -3.33579630e-02 -4.21220921e-02 -2.43709497e-02
      -7.87293352e-03 1.81547347e-02 2.15417240e-02 1.29236104e-02
      -3.20965657e-03 -1.03043253e-02 -2.31370553e-02 -3.43318097e-02
      -2.35024914e-02 1.30220763e-02 2.21513361e-02 2.24266760e-02
      2.16084477e-02 1.81299951e-02 1.39095327e-02 -6.16254844e-03
      -4.02132086e-02 -1.27177350e-02 2.17022486e-02 1.90204792e-02
      1.92325208e-02 3.07500213e-02 2.33754385e-02 2.14812830e-02
      5.73734101e-03 -2.84135137e-02 -2.95132753e-02 1.68301701e-03
      1.25755072e-02 1.82023998e-02 6.21960638e-03 3.45781655e-03
      -1.08530037e-02 -1.38040083e-02 -3.73457894e-02 -1.44482199e-02
      9.18995868e-03 8.13938584e-03 2.10104566e-02 2.00164490e-04
      1.56860407e-02 1.01231411e-02 -8.82706884e-03 -2.38764342e-02
      -1.68412887e-02 1.41958855e-02 1.53710563e-02 1.89671423e-02
      1.95126478e-02 1.95955765e-02 1.55105749e-02 1.38874715e-02
      -1.43944528e-02 -1.39897177e-02 1.70076620e-02 2.92637814e-02
      2.53864303e-02 5.90688549e-03 8.46308377e-03 -1.33347826e-03
      1.04528409e-03 -7.50892889e-03 -1.72830150e-02 7.03479862e-04
      1.52974306e-02 2.58526411e-02 -2.15014555e-02 9.73415468e-03
      1.22831790e-02 -6.68571517e-03 -1.69703066e-02 -2.17000395e-03
      1.52056534e-02 2.61363778e-02 2.17680205e-02 -6.89995289e-03
      1.25457859e-03 1.85948424e-02 -6.48403354e-03 -1.50074679e-02
      -1.81651525e-02 5.01276040e-03 6.16017822e-03 9.61668696e-03
      3.96634489e-02 6.15302892e-03 -2.82731908e-03 -4.18820232e-03
      -2.36131363e-02 -1.81952249e-02 1.20605072e-02 -1.53209025e-04
      7.85809068e-04 4.15691733e-03 -5.43835806e-03 -2.79549015e-04
      1.14974845e-02 -2.53472403e-02 -6.51269965e-03 3.19229346e-03
      4.36967285e-03 -7.24147120e-03 1.13726966e-02 -5.31470543e-03
      1.05386190e-02 -5.35602774e-03 -1.88296475e-02 -2.88383034e-03
      1.04513466e-02 8.02258030e-04 -6.86327834e-03 -1.20620904e-02
      -1.34762162e-02 1.15158660e-02 1.62645709e-02 -1.23955053e-03
      -1.21284304e-02 1.18785435e-02 7.91046210e-03 3.22018424e-03
      5.19968010e-03 -2.19207983e-02 -1.86625086e-02 8.58293474e-03
      -2.58551631e-02 -1.01712449e-02 1.40783319e-03 4.61751502e-03
      7.34626269e-03 1.57507099e-02 -2.70167515e-02 -2.49152016e-02
      -1.66256651e-02 -2.47310605e-02 5.52151585e-03 7.62888510e-03
      -4.13170224e-03 -1.06512634e-02 -6.39412738e-03 -2.53845062e-02
      -2.41998874e-04 1.95393022e-02 -1.09601743e-03 5.27601596e-03
      1.53768528e-03 8.47393088e-03 -5.42521384e-03 1.97509937e-02
      -1.55983670e-02 1.13121979e-02 2.27216654e-03 -8.63462570e-04
      3.36720003e-03 3.59334028e-03 -2.11299141e-03 -7.36393314e-03
      1.73012894e-02 -3.52057293e-02 -2.49732863e-02 -2.11585257e-02
      -1.24894259e-02 -2.72204308e-03 -1.70503138e-03 1.17169181e-03
      -7.69805722e-03 1.03444769e-03 -7.44409813e-03 -8.62360373e-03
      -9.14368127e-03 -3.85292456e-03 9.33297724e-03 7.13240064e-04
      2.06902530e-03 -2.86845136e-02 1.55640561e-02 -2.45644245e-02
      -4.57651867e-03 -6.38329145e-03 -4.04664362e-03 -1.57110801e-03
      -5.23084775e-03 2.90801772e-03 -6.83324086e-03 2.93267355e-03
      -1.04422867e-02 -8.11534002e-03 -8.13972577e-03 -4.96559124e-03
      -2.71638762e-03 -4.65284800e-03 -2.32436578e-03 -1.83917098e-02
      -8.37877765e-03 -1.52839217e-02 -5.54598682e-03 -1.98417017e-03
      1.18707598e-03 7.19302625e-04 7.28989369e-04 4.39190160e-04
      -8.41410889e-04 -3.63440975e-03 -2.05984703e-04 -2.07548946e-04
      7.73981883e-05 1.48414995e-03 -3.18790902e-03 -5.46565140e-03
      -1.05663692e-03 -8.20071064e-03 -9.96631384e-03 -2.36339942e-02
      -1.06175467e-02 -6.66039065e-03 -2.74250121e-03 1.72502454e-03
      1.73475142e-04 -1.22166835e-04 -1.54221733e-03 -3.86924087e-03
      -1.64676527e-03 -1.82870438e-03 -9.96740651e-04 2.23382912e-03
      3.07577051e-04 5.22498158e-04 1.69030187e-04 -7.36377609e-04
      -1.57737022e-03 -6.08257134e-04 -2.09301084e-04 1.12354923e-04
      2.83455302e-04 5.17858098e-05 1.40360426e-04 1.55747650e-04
      4.23283374e-04 7.18697207e-03 7.83612020e-04 7.11491066e-06
      1.44102069e-05 2.22277577e-05 6.34179800e-04 4.05871338e-04
      -1.09849767e-04 -1.23676320e-03 -2.10802191e-05 -2.00688024e-03
      -1.10860018e-03 -3.15889338e-04 6.76859461e-04 1.17739793e-04
      2.20934700e-04 1.48153908e-04 7.45038051e-05 7.18697207e-03
      1.12654082e-03 1.03746301e-04 2.37182867e-05 4.56001217e-05
      1.46602024e-03 9.12953401e-05 6.32317970e-05 6.24016277e-04
      3.12904897e-03 1.13970635e-03 1.22937126e-04 9.08544171e-05
      1.17817323e-03 3.73909692e-03 5.29604324e-04 3.43984895e-04
      1.72467285e-03 -3.08038457e-03 1.38455979e-03 1.18551450e-03
      1.47496478e-03 3.46044009e-03 1.14683772e-03 1.02573198e-04
      2.05121178e-04 9.24815191e-04 2.87989061e-03 1.04438758e-03
      5.31195401e-05 8.06818935e-05 8.98640254e-04 4.76683537e-03
      1.31661352e-03 2.25268467e-03 2.27337866e-03 -3.08038457e-03
      1.69177575e-03 3.77556600e-04 1.13291945e-03 3.74925928e-03
      2.17512506e-03 5.84782974e-04 3.07889830e-04 1.71165506e-03
      6.71830261e-04 1.51112291e-03 2.60787201e-03 1.33363227e-03
      1.92688347e-03 -6.29170798e-04 -1.68526790e-03 -1.96724432e-03
      -1.77882845e-03 -4.05529654e-03 -1.17502650e-02 -2.10187252e-04
      -4.03653504e-03 -1.92273641e-03 3.25780665e-03 9.57705663e-04
      -7.16172101e-04 4.48494422e-04 4.91713523e-04 1.21814571e-03
      1.04896934e-03 1.36511051e-03 3.11420066e-03 -3.25647905e-03
      -4.42074891e-03 -7.91799556e-03 -8.28510243e-03 -2.59618107e-02
      -1.21373385e-02 -5.26890485e-03 -8.74127541e-03 -3.46326781e-03
      3.64910485e-03 5.13179402e-04 -5.07131545e-03 -5.81489934e-04
      -4.03622165e-03 -1.28567312e-02 2.63884140e-04 -1.23633863e-03
      3.55724478e-03 1.82056893e-02 7.78787676e-03 -3.80396610e-03
      -1.93014499e-02 -3.33464704e-03 -2.68042255e-02 1.14311436e-02
      1.28811356e-02 1.43743865e-02 -1.19458931e-03 -2.23096670e-03
      -2.25396617e-03 -3.41429422e-03 -7.10479403e-03 -1.21268528e-02
      -7.20620272e-04 -3.91033385e-03 1.06876483e-03 3.88317392e-03
      3.17950477e-03 5.13848243e-03 -2.23473832e-02 -1.70264882e-03
      -2.00870037e-02 2.33985279e-02 2.07588673e-02 1.32335993e-02
      7.39708077e-03 1.25148322e-03 -3.34202545e-03 -1.92092899e-02
      1.27304820e-02 -1.14273215e-02 1.04769794e-02 1.21101057e-02
      8.35876446e-03 2.92152283e-03 1.09763176e-03 -8.22464190e-03
      -3.02507225e-02 -3.31648141e-02 1.79897854e-03 7.88308494e-03
      7.59152230e-03 2.32192036e-03 2.28718948e-03 5.69775118e-04
      1.33607711e-03 -1.78529993e-02 1.34364227e-02 -4.44024161e-04
      1.85673479e-02 1.74184684e-02 6.19375799e-03 -2.40469212e-03
      5.88519219e-03 -4.00455948e-03 -3.78219187e-02 -2.66574603e-02
      1.53999608e-02 4.80829179e-03 1.21285217e-02 4.67067398e-03
      3.05151072e-04 2.58015655e-03 4.26581129e-03 -5.63967181e-03
      -9.91076417e-03 2.02512532e-03 -6.06724806e-03 -5.26231294e-03
      -8.14084429e-03 1.14620458e-02 1.02003654e-02 3.15263309e-03
      -7.00618932e-03 -3.14236968e-03 -6.00180868e-03 -1.16558718e-02
      -1.39837731e-02 -4.73704841e-03 2.90057447e-04 1.16094472e-02
      1.53978234e-02 -8.50324612e-03 -9.11024027e-03 -4.68954444e-03
      -1.66082531e-02 -6.17118319e-03 -2.19850976e-04 3.42141800e-02
      2.81903129e-02 2.39776615e-02 -4.77069383e-03 -1.44778285e-02
      -4.29086126e-02 -1.89955104e-02 -1.13491574e-02 1.79781169e-02
      -4.90008853e-04 1.51738599e-02 5.28638670e-03 -1.43634062e-03
      1.69411115e-03 -8.73767771e-03 -9.11922194e-03 -8.44820496e-03
      -5.61445532e-03 -1.46819912e-02 -6.32017734e-04 8.20559356e-03
      4.42585442e-03 5.29719703e-03 -1.32239442e-02 -1.38356937e-02
      -1.70629397e-02 -9.89203341e-03 2.95116380e-02 2.29700468e-02
      1.38462251e-02 -1.30513171e-02 -1.42211067e-02 -2.89719589e-02
      -1.35020847e-02 -6.40760595e-03 1.61610190e-02 5.97579312e-03
      3.10240383e-03 -1.10288262e-02 -1.07886512e-02 -1.70862526e-02
      -1.95153411e-02 -1.49925426e-02 -1.88407190e-02 9.52058705e-04
      -4.34794324e-03 -8.21613614e-03 -1.05667952e-03 4.84209834e-03
      1.84808318e-02 -4.42645978e-03 -1.78635307e-02 -6.98595494e-03
      6.54430036e-03 -1.84260160e-02 -7.50431744e-03 -4.23199823e-03
      1.94863777e-03 5.97825646e-03 -1.05456887e-02 -2.70627700e-02
      -3.26371528e-02 -9.29187797e-03 1.32103702e-02 7.06408871e-03
      -5.76508604e-03 1.03170832e-03 -4.87253210e-03 -1.77940261e-02
      -1.94563754e-02 -1.59590747e-02 1.71120570e-03 -2.07374338e-03
      -2.09732354e-03 -5.27361222e-03 -4.69883112e-03 -4.38131625e-03
      -1.76958889e-02 -2.51799487e-02 -2.04977226e-02 -3.11443745e-03
      -5.94214117e-03 3.77115887e-03 6.72718044e-03 1.23793967e-02
      1.19605968e-02 -9.75884032e-03 -1.94226857e-02 -3.34550664e-02
      -1.17383748e-02 -2.28373543e-03 4.85420134e-03 8.07318091e-03
      8.92764051e-03 -6.24832790e-03 -8.45824927e-03 -2.79865284e-02
      -1.87215153e-02 -8.04474391e-03 3.84697667e-03 1.24758191e-03
      -5.75429061e-04 6.68353774e-03 8.50352086e-03 -4.54120012e-03
      -2.77230199e-02 -1.11628091e-02 2.18406925e-03 9.27112997e-03
      8.39237683e-03 9.23655089e-03 9.64956451e-03 -3.73116531e-03
      -9.88482963e-03 -2.90915053e-02 -2.36342382e-02 1.02464994e-02
      -9.72793810e-03 1.10710142e-02 1.33804167e-02 7.56063359e-03
      -1.90555453e-02 -6.86411094e-03 -2.62015723e-02 -6.10732799e-03
      -5.62133314e-03 -1.22231124e-02 6.25981716e-03 6.55855006e-03
      7.59673258e-03 -1.76155381e-02 1.25840204e-02 5.24713425e-03
      4.00525378e-03 -7.40759494e-03 5.99982310e-03 1.08753750e-02
      9.56416782e-03 9.17508360e-03 -2.43407544e-02 -1.10383015e-02
      -2.89490148e-02 -1.69985034e-02 5.66258701e-03 1.12879099e-02
      1.37509741e-02 5.13571827e-03 5.00087719e-03 -9.74781532e-03
      1.21270269e-02 2.63357349e-03 1.54614579e-02 1.11768181e-02
      -4.11018403e-03 9.18117911e-03 1.19408006e-02 2.14831587e-02
      -3.06277610e-02 5.77689242e-03 9.89227556e-03 -2.73897941e-03
      -1.20224291e-02 1.48154395e-02 1.71139762e-02 1.79774668e-02
      2.15930622e-02 -1.45086581e-02 7.58939190e-04 5.82040055e-03
      -1.51579524e-03 -6.76365523e-03 1.64864026e-02 1.25241559e-02
      8.51742271e-03 2.51497179e-02 -1.51916454e-02 1.46962889e-02
      9.97112319e-03 3.23024602e-03 8.69609881e-03 2.69855466e-02
      2.91601056e-03 4.32559708e-03 1.49853453e-02 -1.62567850e-02
      8.50517023e-03 4.04092763e-03 7.80657213e-03 9.25708748e-03
      7.76250940e-03 1.00916615e-02 2.84952857e-03 -1.43166902e-02
      7.49595836e-03 -2.17548711e-03 2.47599976e-03 -3.49679566e-03
      -7.04111857e-03 7.90790841e-03 1.06270174e-02 2.01767380e-03
      -1.14058219e-02 -1.71472784e-02 8.52791965e-03 1.32880565e-02
      8.94131511e-03 2.52076727e-03 1.62374377e-02 3.28602432e-03
      -6.24872278e-03 -1.09954476e-02 3.57225566e-04 7.17841182e-03
      -5.66794863e-03 2.16759229e-03 4.22483729e-03 1.61277968e-02
      1.88270677e-02 8.92963447e-03 -8.62292387e-03 -1.80892963e-02
      1.04254317e-02 -5.52906375e-03 2.72934115e-03 5.48852002e-03
      9.40069743e-03 7.93913472e-03 -6.59158733e-03 -2.17125881e-02
      -1.15129519e-02 -5.16527100e-03 1.02282474e-02 8.69385060e-03
      -4.85793874e-03 9.86327883e-03 8.24988820e-03 6.17171219e-03
      -4.84981155e-03 2.03536842e-02 -6.27787726e-04 8.76555219e-03
      5.90787386e-04 -4.14051843e-04 9.72218998e-03 9.11487825e-03
      1.44592230e-03 -2.97763851e-02 -1.06143858e-02 5.73549932e-03
      -1.41808838e-02 -8.71647988e-03 -1.21385576e-02 1.07372506e-02
      8.08802340e-03 6.95261220e-03 -5.02937846e-03 2.13194601e-02
      5.33335493e-04 -8.98758695e-03 -7.11466186e-03 -5.06406650e-03
      9.74106253e-04 1.78815657e-03 4.19206539e-04 -2.80711185e-02
      1.85907371e-02 -8.83762445e-03 -5.43969078e-03 -6.55917125e-03
      -4.16884944e-03 -5.52428700e-03 -6.52765250e-03 -2.84095382e-04
      -9.82466806e-03 7.04439916e-03 -5.26596187e-03 -1.15349852e-02
      -4.19738097e-03 -4.43313923e-03 2.71253125e-03 1.74895115e-03
      -7.25951511e-03 -2.30983254e-02 1.71079207e-02 -1.26603134e-02
      -1.80728193e-02 -1.63079984e-02 -9.21981037e-03 -3.38673801e-03
      -2.77310144e-03 6.10283518e-04 -7.60123832e-03 7.01450801e-04
      -8.16140510e-03 -1.61508173e-02 -5.86232264e-03 -1.03225629e-03
      -2.85525084e-03 -4.03832737e-03 5.31769881e-04 -8.65125749e-03
      -1.26487957e-02 -1.57543179e-02 -1.16033917e-02 -5.47041418e-03
      -2.57569086e-03 1.00240880e-03 -6.20412757e-04 2.11193372e-04
      -9.48449946e-04 -2.19912874e-03 -1.55218213e-03 -2.04118388e-03
      -1.20523560e-03 1.54667045e-03 -3.15156579e-03 -8.83131288e-04
      2.59602303e-03 -1.61938202e-02 -1.05899386e-02 -1.21746724e-02
      -1.22535359e-02 -5.86359389e-03 -1.32481405e-03 -1.68904278e-03
      4.05295374e-04 1.23750011e-03 -6.52964867e-04 -4.32262709e-03
      -1.13121467e-04 -3.62585834e-03 -3.99002852e-03 4.93416796e-04
      -2.28491946e-04 -8.94000579e-04 -2.06722470e-04 -9.05603520e-04
      8.93311299e-05 -1.82726223e-03 -1.75835693e-03 -1.34422013e-03
      5.11914957e-04 5.76984567e-05 9.55155410e-05 5.55528059e-05
      1.40323958e-04 7.19893770e-03 8.53701902e-04 8.73417084e-05
      4.00474455e-05 4.73808832e-05 -6.52891351e-03 -1.51328288e-03
      -1.91201849e-04 -1.32150191e-03 1.62429304e-03 4.75514935e-05
      -2.29711109e-03 -7.17041595e-03 -1.77527557e-03 1.74185025e-05
      1.54211724e-04 7.60785260e-05 7.97532208e-04 7.19893770e-03
      1.03517936e-03 5.99567866e-05 4.14436654e-05 8.45869872e-05
      7.93819490e-04 4.40240401e-04 8.46010284e-04 1.17918733e-03
      2.64972472e-03 9.41997569e-04 1.71857042e-04 2.23889801e-04
      6.63739629e-04 4.49025305e-03 1.87190471e-03 2.86390400e-03
      2.06206134e-03 -3.63501045e-03 2.85758800e-03 8.20585003e-04
      2.48930790e-03 2.79401382e-03 8.42684007e-04 1.04684161e-03
      1.41419389e-03 1.27612113e-03 2.38875113e-03 1.38077058e-03
      1.07574226e-04 2.01734059e-04 4.81199822e-04 3.76979169e-03
      2.94367690e-03 2.71312706e-03 1.94974500e-03 -3.63501045e-03
      2.44253268e-03 7.74690416e-04 2.34350213e-03 1.80584181e-03
      3.96592263e-03 1.24782172e-03 -1.37021605e-04 -1.14002347e-03
      -1.47223065e-03 1.97601481e-03 8.48701340e-04 2.14431039e-03
      2.94727809e-03 1.29683537e-03 -5.59971551e-04 -5.31148771e-03
      -1.00545743e-02 -2.34432220e-02 -3.75060271e-03 -4.85972688e-03
      -2.00685882e-03 1.35894376e-03 3.49553791e-03 1.42017915e-03
      2.26651551e-04 -3.70431133e-03 -4.68558678e-03 1.06487481e-03
      1.03605981e-03 2.05147290e-03 2.59033986e-03 2.36089039e-03
      -5.84893976e-04 -1.28245889e-03 -1.66938957e-02 -1.50567451e-02
      -3.77709605e-03 -4.12770081e-03 -4.38969932e-04 2.55518104e-03
      1.31579768e-03 3.50030423e-05 -2.56290194e-03 -8.88971426e-03
      -1.16652641e-02 -9.06384457e-03 -1.40048005e-03 -9.75921212e-05
      4.18385910e-03 2.13482836e-03 4.69870120e-03 3.05595365e-03
      -3.24152447e-02 7.71916937e-04 -1.56776439e-02 1.11943856e-02
      2.01871917e-02 8.32452346e-03 8.84405430e-03 1.22680177e-03
      -2.64681701e-04 -1.34081962e-02 -2.57603335e-03 -7.83862825e-03
      2.73566955e-04 3.42281442e-03 8.02089553e-03 9.25347116e-03
      9.79870744e-03 6.33842871e-03 -3.24660428e-02 6.00111764e-03
      -1.38095114e-02 1.48602377e-03 1.20095033e-02 8.64542555e-03
      3.61189200e-03 4.57578339e-03 4.85471450e-03 -2.44740099e-02
      1.93938357e-03 6.82871498e-04 8.81972164e-03 9.34220571e-03
      4.92170220e-03 -2.73833808e-04 9.29936580e-03 6.76700659e-03
      -1.84107162e-02 -3.61260585e-02 7.50879524e-03 -4.25870494e-05
      7.27507425e-03 4.63035330e-03 9.27215535e-03 1.27764456e-02
      1.29365576e-02 -2.34593488e-02 5.63878752e-03 -4.71210200e-03
      -2.41864193e-03 -7.25095306e-05 1.97959645e-03 9.23090894e-03
      1.83182377e-02 1.39111234e-02 -7.03659281e-03 -3.67696024e-02
      1.19185736e-02 -1.11282859e-02 -9.60206054e-03 3.16752214e-03
      -3.95335117e-03 5.05366549e-03 1.60874594e-02 6.87026419e-03
      -4.91196243e-03 -4.57494706e-03 -2.45656278e-02 -8.35554115e-03
      -3.29826353e-03 1.38116367e-02 2.03965269e-02 1.77524053e-02
      1.65261899e-03 -1.55442773e-04 -4.63066809e-02 -2.53914632e-02
      -9.07779392e-03 1.40472287e-02 5.13280090e-03 4.39015683e-03
      7.76411640e-03 9.59208887e-03 -4.99129947e-03 -1.61867426e-03
      -2.09926758e-02 -1.46532999e-02 -2.61695078e-03 1.21915024e-02
      1.24332868e-02 2.79398356e-03 -3.43571114e-03 2.07620244e-02
      -3.22579741e-02 -2.13749092e-02 -1.32352570e-02 1.08266203e-03
      2.63600312e-02 2.57361662e-02 5.26316697e-03 -2.61145124e-05
      -1.04552798e-03 -1.44263394e-02 -1.51554598e-02 -6.73491450e-04
      1.38900215e-02 6.65401760e-03 -2.85484479e-03 -4.61114710e-03
      8.96600913e-03 3.16819386e-03 -4.37438348e-03 -1.92822423e-02
      -1.86318588e-02 -4.85801604e-03 1.28021250e-02 1.28554022e-02
      -2.75807641e-03 4.87959369e-05 1.30402073e-02 -2.03544088e-02
      -2.39365418e-02 4.85397031e-04 1.07313730e-02 4.01396817e-03
      -3.85460118e-03 3.56413587e-03 -2.86639668e-04 2.05780026e-02
      -1.92653220e-02 -3.53000164e-02 -2.40670629e-02 -3.12180468e-03
      1.36570884e-02 1.81867718e-03 3.40152020e-03 1.49416197e-02
      9.03365202e-04 -1.61903836e-02 -2.88096089e-02 -2.27637105e-02
      3.25137889e-03 1.45518621e-02 3.41050746e-03 -4.35438124e-05
      6.98103709e-03 2.12203944e-03 -1.07447878e-02 -3.56769711e-02
      -2.29317248e-02 7.41714099e-03 3.22590373e-03 -8.06694850e-03
      9.34550818e-03 1.57706570e-02 2.18565091e-02 -1.94666516e-02
      -3.29275616e-02 -2.48514172e-02 -6.83679758e-03 6.01981534e-03
      1.48670655e-02 5.55665651e-03 1.99415511e-03 1.68679617e-02
      -3.69339227e-03 -2.96647847e-02 -2.93889903e-02 1.03458390e-03
      8.68587196e-03 4.07015299e-03 -6.66651875e-03 9.79349483e-03
      3.52758891e-03 -1.28694030e-03 -3.66217978e-02 -1.37108685e-02
      5.90826245e-03 1.16155734e-02 9.02654417e-03 5.90425869e-03
      3.58019979e-03 -3.19548580e-03 -1.50994686e-02 -3.30133922e-02
      -2.03716606e-02 5.54678543e-03 1.53183360e-02 2.62842942e-02
      -2.18240055e-03 -5.52437792e-04 1.80945022e-03 -2.56508216e-03
      -3.44848000e-02 -2.64430884e-02 5.71549113e-04 1.74969435e-02
      2.14670021e-02 -7.80627038e-03 -1.20419590e-02 -5.17780893e-03
      -2.32072435e-02 -3.77497599e-02 -1.31745161e-02 1.80174864e-03
      1.44041311e-02 6.28886977e-03 3.28731869e-04 2.24948721e-03
      -2.08335761e-02 -2.36823820e-02 -4.34910655e-02 -1.86682269e-02
      -1.85110827e-03 2.51690298e-02 1.23281442e-02 9.87950061e-03
      2.22813170e-02 -1.11102127e-02 1.44100201e-03 -1.02568837e-02
      9.73735587e-04 1.42808408e-02 1.14500299e-02 1.51018184e-02
      -7.55508989e-03 -3.32731241e-03 -1.53138982e-02 -1.99476331e-02
      -3.59767228e-02 -8.89221020e-03 1.12026073e-02 1.99602470e-02
      1.74920112e-02 1.09228678e-02 2.27535889e-02 -4.62641288e-03
      5.29873243e-04 -5.23838773e-03 4.95681632e-03 2.45752875e-02
      1.43732997e-02 7.08941510e-03 1.24091879e-02 2.46655606e-02
      -2.30392925e-02 9.28896293e-03 -1.37545308e-02 -3.28957452e-03
      1.12354010e-02 2.43587028e-02 9.81802493e-03 5.09013515e-03
      1.35252299e-03 -2.30653752e-02 4.76592733e-03 -4.09948360e-03
      1.32968109e-02 9.39489342e-03 1.24952421e-02 1.21296644e-02
      9.89433564e-03 9.02322866e-03 -1.49012087e-02 5.39863249e-03
      -4.71926341e-03 4.61905822e-03 1.83361284e-02 3.09962705e-02
      2.38433275e-02 6.87362114e-03 -2.44485065e-02 -1.34448893e-02
      -1.00293485e-02 -4.32942202e-03 1.25369299e-02 2.41549127e-02
      1.14940312e-02 3.71155003e-03 -6.28492469e-03 -1.02740424e-02
      -6.59933034e-03 3.98829300e-03 -1.49636520e-02 9.48734768e-03
      3.56087089e-03 1.45173287e-02 1.73249207e-02 5.16827125e-03
      -4.73021111e-03 -1.84821412e-02 2.19873516e-04 -1.95047110e-02
      5.26873302e-03 8.91880319e-03 1.98972449e-02 6.99627865e-03
      -1.59838591e-02 -3.11402604e-02 -8.20466969e-03 -1.37270456e-02
      -1.29858460e-02 1.38133056e-02 8.87520146e-03 1.57013480e-02
      1.17528513e-02 -8.38957634e-03 -2.36414969e-02 -2.15222500e-02
      -8.69027339e-03 -9.73957963e-03 1.46763148e-02 1.99958291e-02
      9.27034393e-03 3.09323170e-03 -7.38573819e-03 -1.44688329e-02
      -1.04954122e-02 -4.27014381e-03 -2.58397534e-02 -3.23298736e-03
      -2.92642834e-03 9.49210301e-03 5.10968687e-03 4.41651559e-03
      -9.33230575e-03 1.84199102e-02 -8.20566493e-04 -5.37314638e-03
      -4.24214901e-04 -2.24319589e-03 1.70450490e-02 4.01343824e-03
      -9.05606151e-03 -2.20117588e-02 -1.43480888e-02 -1.36182979e-02
      -1.33240763e-02 5.60808880e-03 2.18092036e-02 9.53871850e-03
      5.18515613e-03 9.36225260e-05 -1.93508565e-02 1.17492927e-02
      -2.13074894e-03 -3.78302764e-03 -6.48922985e-04 1.41615176e-03
      6.80863019e-03 -1.99541377e-04 -4.48345812e-03 -3.25610824e-02
      1.79678220e-02 -8.49589240e-03 -1.08956676e-02 -1.07776672e-02
      -3.62372055e-04 7.05378188e-04 -2.55733286e-03 -1.39312921e-04
      -1.55656282e-02 -8.08962388e-04 -4.31419676e-03 -6.12894772e-03
      -1.25698291e-03 1.81448669e-03 7.77920010e-03 -3.10423388e-03
      -7.57315382e-03 -3.27484310e-02 1.27529046e-02 -1.53336460e-02
      -7.93188717e-03 -3.01897363e-03 3.06080002e-03 8.25222116e-04
      -3.31564667e-03 -8.27232841e-04 -1.60362460e-02 -6.99476746e-04
      -6.38987729e-03 -6.43840613e-05 1.41556212e-03 1.52250903e-03
      -2.00519478e-03 -2.75480212e-04 6.00581232e-04 -1.96267646e-02
      -1.14403544e-02 -7.44509976e-03 -6.61107944e-03 -1.64224603e-03
      -9.59253986e-04 -2.24858709e-03 2.07991441e-04 3.83842795e-04
      -1.68675522e-03 -2.24999292e-03 -6.53951545e-04 -2.47262209e-03
      -2.21793936e-03 -8.89316143e-04 -1.08979561e-03 -8.07993696e-04
      -1.50703581e-03 -2.33378243e-02 -1.26015367e-02 -1.20751867e-02
      -4.53977939e-03 1.65829988e-05 -9.18587844e-04 -4.00063611e-04
      -3.17176964e-05 5.83358160e-05 -2.50452547e-03 -1.16487371e-03
      -5.37568994e-04 -1.35796051e-03 4.37568699e-04 -3.42849846e-04
      -8.58868379e-03 -2.30128341e-03 -6.99668599e-04 -3.72558925e-03
      2.48041702e-03 2.88123294e-04 -2.20944453e-03 -7.78861903e-03
      -4.11723321e-03 2.45238625e-05 8.94427940e-05 1.71849242e-05
      8.21113237e-04 7.22638424e-03 8.03427072e-04 5.39162247e-05
      2.44012808e-05 6.07792099e-05 -2.41623400e-03 -2.55074212e-03
      -1.04083179e-03 -3.55063402e-03 3.76742589e-03 -5.31165453e-04
      -5.15618874e-03 -2.24236073e-03 -1.71806884e-03 5.89521696e-05
      7.18699157e-05 1.86309426e-05 5.33764483e-04 7.22638424e-03
      7.12244422e-04 5.02003059e-05 1.54229710e-05 5.11416874e-05
      5.00291586e-04 3.81055259e-04 4.47347615e-04 1.30496174e-03
      3.28690023e-03 1.37304224e-03 3.45885019e-05 7.95657470e-05
      3.82286933e-04 2.55419710e-03 1.29044394e-03 9.63508326e-04
      1.48815650e-03 -3.05619091e-03 1.23075640e-03 1.92559091e-03
      1.02262665e-03 2.82158749e-03 5.52022655e-04 1.93900720e-04
      3.87165783e-04 2.66497373e-03 3.06125567e-03 1.43811095e-03
      3.76416974e-05 2.01251678e-05 6.23708649e-04 4.17168718e-03
      1.04447280e-03 -1.50858960e-03 -3.15966900e-04 -3.05619091e-03
      1.52846740e-03 3.79836210e-03 1.13148126e-03 4.92415437e-03
      2.43966910e-03 1.16354774e-03 -1.00597984e-03 -3.49535164e-03
      -3.40385758e-03 -4.96712513e-04 2.22733314e-03 1.52129773e-03
      2.77212495e-03 4.65604383e-03 -3.05192720e-04 -1.86941330e-03
      -7.53358891e-03 -1.73754711e-02 -8.83955508e-03 -3.09243798e-03
      -1.24638857e-04 3.56931891e-03 3.38719599e-03 9.05144843e-04
      -2.86276359e-03 -4.20379173e-03 -2.41000758e-04 -4.78684553e-04
      3.79233365e-03 2.36107293e-03 4.03615693e-03 4.22890484e-03
      -1.00884202e-03 -7.73176923e-03 -1.02049494e-02 -1.73266027e-02
      -1.30041996e-02 -3.24063143e-03 3.12912627e-04 3.33785824e-03
      7.20079942e-03 -3.12016957e-04 -5.69073542e-04 -1.15311947e-02
      -1.30176852e-02 -5.23570925e-03 4.85347863e-03 1.44202949e-03
      7.38696149e-03 1.14188911e-02 5.39881084e-03 4.84625529e-03
      -2.40332969e-02 -1.34340888e-02 2.06591189e-03 1.24519225e-02
      7.47671863e-03 1.41743533e-02 8.71422421e-03 -4.08060558e-04
      -1.50627026e-03 -1.19685810e-02 -2.07595211e-02 -3.81662231e-03
      5.03111957e-03 2.33326713e-03 1.01040071e-02 1.69302467e-02
      3.28950444e-03 5.85351698e-03 -2.74386108e-02 -7.90769700e-03
      1.31788373e-03 1.92488842e-02 1.48634845e-02 2.98937671e-02
      1.34670455e-02 1.25553804e-02 5.88804670e-03 -2.04066485e-02
      -1.08361924e-02 5.81257651e-03 1.86508731e-03 8.85060217e-05
      9.77502111e-03 2.12230738e-02 1.26938308e-02 3.51583282e-03
      -9.99860279e-03 -5.91781139e-02 1.96208768e-02 -8.89193546e-03
      -1.02775106e-02 9.89095308e-03 2.63338443e-02 1.38058234e-02
      7.35274749e-03 -1.78858675e-02 -5.79556159e-04 4.49855346e-03
      8.26367829e-03 8.00704211e-03 2.44962145e-02 2.66204271e-02
      1.49870152e-02 7.97400530e-03 -5.54652466e-03 -5.95355332e-02
      1.97504163e-02 9.28679190e-04 -2.86061503e-03 1.88263282e-02
      1.32083558e-02 4.24212916e-03 1.12318760e-03 8.83502606e-03
      -1.53196976e-02 -3.49140901e-04 -2.61443090e-02 -2.47742124e-02
      -6.97572948e-04 1.55780166e-02 2.06188988e-02 1.73942000e-02
      -1.42349796e-02 -2.07829187e-04 -2.96958070e-02 -2.30930485e-02
      -2.52685603e-02 -3.94598115e-03 1.41196549e-02 7.59467343e-03
      1.84002472e-03 1.74344536e-02 -4.54767654e-03 1.26073658e-02
      -9.43746697e-03 -1.79057941e-02 4.36487421e-03 2.29174942e-02
      1.40580097e-02 1.51485391e-02 -1.18272072e-02 1.09561495e-02
      -1.87431574e-02 -2.40425617e-02 -2.92089190e-02 7.79819349e-03
      2.59201918e-02 3.05650309e-02 1.93744078e-02 -4.87892888e-03
      1.09929983e-02 -2.46065352e-02 -3.27512883e-02 -7.69181503e-03
      1.14844386e-02 1.91060249e-02 1.05483402e-02 1.27331521e-02
      -4.91045043e-03 8.88551679e-03 -2.23867577e-02 -3.67833376e-02
      -2.45600622e-02 -1.88357328e-04 3.16772982e-02 3.25697623e-02
      2.39438415e-02 -3.43303871e-03 1.67656858e-02 -1.19254421e-02
      -3.43901478e-02 -1.90550145e-02 1.91710219e-02 1.99850425e-02
      2.10715160e-02 7.63419503e-03 -1.29475733e-02 2.92194844e-03
      -9.44426563e-03 -4.00325432e-02 -3.92251797e-02 -1.49774831e-03
      6.44951593e-03 -1.22735265e-03 5.38189197e-03 3.17660696e-03
      2.17265766e-02 -1.20307878e-02 -2.98624467e-02 -2.70569567e-02
      -3.90154449e-03 4.10670647e-03 1.71147380e-02 -1.89790304e-03
      -1.02588511e-03 2.36324053e-02 -4.27321019e-03 -3.17007191e-02
      -2.32100133e-02 -2.07130186e-04 9.92105156e-03 1.99596235e-03
      -7.57374428e-03 -1.39077920e-02 5.20785572e-03 4.37666802e-03
      -2.09616870e-02 -3.41779590e-02 5.73851913e-03 2.42436701e-03
      -2.84550618e-03 -2.83586681e-02 -1.77931949e-03 2.96010766e-02
      3.81282088e-03 -2.34244391e-02 -2.57540904e-02 6.30584080e-03
      6.25130022e-03 2.47031339e-02 8.49343312e-04 2.49289628e-03
      1.21022416e-02 -3.00318422e-03 -3.97915319e-02 -2.63057109e-02
      6.67352870e-04 1.63432788e-02 2.04653498e-02 -8.97204690e-03
      -4.82956367e-03 -8.77491105e-03 -2.44557355e-02 -3.79706584e-02
      -2.04455759e-02 4.22084611e-03 -5.10012731e-03 8.06740951e-03
      -1.82926934e-02 1.43787535e-02 2.03929655e-02 -1.94124412e-03
      -2.82322057e-02 -2.49031018e-02 -8.93530529e-03 1.17755318e-02
      1.47587657e-02 -3.01168323e-03 9.33404919e-03 9.60654858e-03
      -1.74869653e-02 -2.32178327e-02 -2.26897467e-02 1.21573815e-02
      1.30318124e-02 1.38800573e-02 -7.30066141e-03 -8.74189660e-03
      -2.89480444e-02 -2.21766811e-02 -3.18527706e-02 -1.21899629e-02
      1.60870329e-02 7.72886211e-03 8.56198836e-03 -3.52030550e-03
      5.01311617e-03 -1.58976950e-02 4.37063444e-03 6.24385290e-03
      2.17263866e-03 2.59897355e-02 1.27095394e-02 1.21906074e-02
      -1.34227173e-02 -4.02705558e-03 -2.19455250e-02 -2.92773414e-02
      -1.83400474e-02 -1.93016063e-02 1.48516931e-02 1.19843883e-02
      1.75866783e-02 -1.14826476e-02 9.54155810e-03 -3.60041112e-03
      2.75717815e-03 2.40905974e-02 4.01910074e-04 1.08315833e-02
      9.66623134e-04 -1.89703118e-04 -1.04288328e-02 4.25672578e-03
      -2.02683620e-02 7.46167498e-03 7.85284024e-03 3.17922817e-03
      9.31571610e-03 2.70778388e-02 9.54809133e-03 1.57452119e-03
      -1.98873915e-02 -1.83365494e-02 -1.24480482e-02 -7.03494484e-03
      2.91658536e-04 2.35140231e-02 2.02705944e-03 -6.59807818e-03
      -1.65359750e-02 7.53612164e-03 -1.43900197e-02 1.82206687e-02
      1.91482939e-02 6.03699498e-03 8.26760102e-03 3.39735560e-02
      6.35311473e-03 -1.04839879e-03 -9.94915050e-03 -1.53702125e-02
      -2.47258376e-02 -1.70786085e-03 1.15845408e-02 4.17615287e-02
      1.91533174e-02 9.75415809e-04 -1.98188685e-02 -3.44815068e-02
      -4.13677888e-03 -1.19927218e-02 -1.25343185e-02 9.20098741e-03
      1.38571188e-02 1.72482580e-02 -1.44849226e-04 -1.92941464e-02
      -3.10376100e-02 -1.55239012e-02 -4.00419254e-03 6.85373525e-05
      1.50901871e-02 2.27162335e-02 3.39693241e-02 7.60384882e-03
      -1.94796044e-02 -2.61637550e-02 1.98475900e-03 -1.62937902e-02
      -1.76066272e-02 1.60213709e-02 2.81025991e-02 2.10181680e-02
      2.51792371e-03 -1.72303095e-02 -2.15569418e-02 -1.69260409e-02
      -3.45184165e-03 3.13264830e-03 1.82244126e-02 2.38860138e-02
      1.50481816e-02 5.76301385e-03 -4.22785059e-03 -1.86526272e-02
      -2.02539209e-02 -1.58641450e-02 -7.12121185e-03 7.68730603e-03
      2.46089604e-02 6.46514306e-03 3.35590611e-03 -4.38047899e-03
      -1.73210986e-02 8.54754355e-03 -4.84942971e-03 1.02514157e-03
      1.25949830e-03 2.07695668e-03 8.73847771e-03 3.52596049e-03
      -6.39716024e-03 -1.27957342e-02 -2.16092337e-02 -1.59509592e-02
      -6.61304500e-03 8.42680968e-03 2.38866732e-02 2.33916705e-03
      3.76448967e-03 9.73529590e-04 -6.56306604e-03 5.59613202e-03
      -2.12414954e-02 1.66829617e-03 8.45322106e-03 8.38140864e-03
      7.53840432e-03 -6.32286491e-03 -1.47384014e-02 -3.16471644e-02
      1.25253750e-02 -1.54649103e-02 -1.56653346e-03 1.67528237e-03
      4.58600977e-03 1.25248858e-03 -4.97330911e-03 -5.68662956e-03
      -1.56825297e-02 -1.13520352e-03 -3.62944161e-03 1.10839459e-03
      5.80637192e-04 1.15293614e-03 9.00819991e-03 -2.77083879e-03
      -9.29808337e-03 -2.76837107e-02 1.34811513e-02 -3.01954560e-02
      -1.03518078e-02 6.73939427e-03 8.43069609e-03 1.55394338e-03
      -6.91144774e-03 -3.07621155e-03 -1.26580521e-02 -2.23141559e-03
      -1.47571962e-03 2.39206222e-03 2.14031688e-03 -8.80133302e-04
      -7.82131508e-04 -1.11792667e-03 -1.76026265e-03 -1.82464384e-02
      -2.16822904e-02 -1.20214559e-02 -3.00562568e-03 -1.50301773e-03
      -9.70545458e-04 -2.84946364e-05 1.65427511e-04 -1.43158730e-04
      -3.20238410e-03 1.96987239e-04 -2.11832859e-03 -6.64790801e-04
      2.94720754e-04 -9.91530833e-05 -1.95911084e-03 -2.33455491e-03
      -2.55959155e-03 -1.84911210e-02 -5.99117717e-03 -1.79314874e-02
      -3.15769203e-03 -8.22747999e-04 -2.91022798e-03 -3.30536772e-04
      -2.76248116e-04 -9.22139967e-04 -5.26605872e-03 -8.76521983e-04
      -2.89251283e-03 -1.69261720e-03 1.29769149e-03 -5.00950904e-04
      -3.02166009e-04 -2.82462250e-04 -1.66393700e-03 -6.56908471e-03
      3.40184802e-03 -1.42529234e-03 -3.10310256e-03 -4.82314441e-04
      -4.25995997e-04 4.25261496e-05 7.78801914e-05 8.50963625e-05
      3.38293350e-04 7.05297245e-03 6.54909003e-04 3.59406331e-05
      1.32881432e-05 3.22862434e-05 -4.22251673e-04 -1.89332722e-03
      -4.42557642e-03 -7.63712917e-03 4.40603169e-03 -6.50784792e-03
      -6.12780452e-03 5.17239037e-04 3.62395876e-05 2.47962362e-05
      4.40645344e-05 1.02991093e-04 8.27854790e-04 7.05297245e-03
      8.40540801e-04 1.32284156e-04 4.29741449e-05 3.45116605e-05
      4.15023766e-04 2.20010319e-04 5.73885627e-04 1.70938985e-03
      4.23806766e-03 1.20474235e-03 5.90691980e-06 5.79490370e-06
      4.03686223e-04 3.91243305e-03 9.59999044e-04 -8.40738008e-04
      -1.07885792e-03 -1.65843766e-03 8.61999346e-04 1.05770270e-03
      3.99140903e-04 3.34320869e-03 2.27773009e-04 1.06169478e-04
      3.55864788e-04 1.42935279e-03 4.06101160e-03 1.09597133e-03
      5.93351360e-05 1.60603886e-04 2.38130786e-04 3.04564484e-03
      7.16041715e-04 9.40539700e-04 -3.95636447e-03 -1.65843766e-03
      -1.24563882e-03 9.31155402e-04 2.19857739e-03 3.50040849e-03
      3.41491727e-03 3.88746266e-04 -2.73280824e-03 -4.53840569e-03
      -6.92413072e-04 -1.17972275e-04 1.60319416e-03 1.27849483e-03
      2.82378774e-03 2.70861411e-03 -2.32217158e-03 -8.25117342e-03
      -1.45762907e-02 -1.53584462e-02 -1.18907457e-02 -2.47998000e-03
      -1.48456276e-03 3.03971791e-03 3.57104233e-03 -1.91813131e-04
      1.12419052e-03 -5.32189431e-03 -1.49698427e-03 -2.09316495e-03
      7.96173757e-04 1.81284640e-03 2.72909342e-03 2.66854791e-03
      -3.26720974e-03 -4.06476762e-03 -1.62892733e-02 -1.53584462e-02
      -1.48434285e-02 -4.24929336e-03 -2.48289690e-03 1.14285003e-03
      6.43383479e-03 -5.89053787e-04 -1.46303675e-03 -8.93462077e-03
      -1.80445090e-02 -5.38307289e-03 -3.87153326e-04 9.39827412e-04
      7.32978294e-03 1.16355764e-02 2.34541576e-03 7.61516951e-03
      -6.36113388e-03 -2.39707995e-03 -6.01938041e-03 7.33220950e-03
      4.71532485e-03 2.04118956e-02 5.34539297e-03 -1.14846113e-03
      1.43688451e-03 -6.48071757e-03 -2.50519887e-02 -9.78673901e-03
      -9.13954806e-04 8.72193254e-04 4.80853487e-03 9.21838358e-03
      -5.71573910e-04 5.45511814e-03 -1.17200054e-02 1.10079063e-05
      -3.63367214e-03 7.25938240e-03 9.50165035e-04 8.48557334e-03
      1.29246870e-02 5.35591040e-03 7.05117639e-03 -4.62077931e-03
      -6.39856840e-03 -3.02634342e-03 7.72085181e-03 2.20306451e-03
      1.49981873e-02 2.06532218e-02 1.27835497e-02 1.38814906e-02
      1.80875547e-02 -5.39486632e-02 1.95069611e-02 4.21270495e-03
      -5.23715327e-03 1.13119967e-02 8.45912285e-03 9.59202298e-04
      2.38414807e-03 -3.77786951e-03 -2.95357103e-03 1.56403903e-03
      1.03139980e-02 -2.88521335e-03 1.63930003e-03 2.72834813e-03
      1.38060236e-02 9.31308419e-03 3.03271674e-02 -4.83015776e-02
      2.17083320e-02 5.60729951e-03 -8.88563693e-03 -6.56129373e-03
      7.51483534e-03 1.60300045e-03 -6.31295494e-04 1.83249172e-02
      5.59326448e-03 1.37082292e-02 -9.88005381e-03 -1.37001984e-02
      -1.47748762e-03 1.00215999e-02 -1.09670509e-03 1.58484967e-03
      -4.67574038e-03 1.14713907e-02 -4.11076099e-03 -2.21998710e-02
      -2.46374086e-02 3.45472759e-03 -7.93058798e-03 7.26174423e-03
      3.19637547e-05 2.65512001e-02 -7.27994367e-03 1.35036595e-02
      -1.43693918e-02 -1.86450966e-02 -1.20892329e-02 -8.06897134e-03
      3.44388303e-03 1.44459857e-02 7.56701687e-03 2.80569494e-02
      1.20854741e-02 -2.44649891e-02 -2.21936312e-02 -1.64577756e-02
      1.84151512e-02 2.18977556e-02 1.87356770e-02 -4.02258709e-03
      8.44487827e-03 -1.04887029e-02 -3.55359986e-02 -2.53505986e-02
      1.52681200e-02 8.60810652e-03 2.24306751e-02 1.40161021e-02
      -1.06730731e-02 -1.72221579e-03 -1.41614424e-02 -5.49100488e-02
      -4.92544249e-02 -8.35664920e-04 1.65706500e-02 3.03286277e-02
      3.24371308e-02 8.52271728e-03 2.04646848e-02 4.69002407e-03
      -2.17869729e-02 -1.11785438e-02 -9.61463526e-03 1.59078520e-02
      3.30559202e-02 3.35195884e-02 1.74494553e-02 1.10547282e-02
      -1.47526516e-02 -3.95191647e-02 -1.43317450e-02 -2.98751122e-03
      8.08920420e-04 -2.67133419e-03 -6.25861995e-03 -6.02564402e-03
      6.83420291e-03 -1.99287990e-03 -4.15479280e-02 -3.77803221e-02
      5.90980286e-03 -7.69108301e-03 -3.07985656e-02 -3.55361588e-02
      -5.90266287e-03 2.23060697e-02 7.31242076e-03 -2.34117284e-02
      -1.64990891e-02 7.07092322e-03 9.85453650e-03 -6.38005440e-04
      -8.98457423e-04 2.14680079e-02 1.65709946e-02 -1.93996320e-03
      -1.80443265e-02 -1.30956275e-02 9.43344180e-03 3.49892955e-03
      -2.83391569e-02 -3.54494415e-02 9.80656501e-03 3.16163525e-02
      9.29269381e-03 -9.10263229e-03 2.39531789e-03 1.79893617e-02
      -5.19090379e-03 -1.15909716e-02 -2.57488322e-02 1.05105741e-02
      1.14387218e-02 -3.71612841e-03 -2.95336563e-02 -1.73006579e-02
      -5.46917785e-03 8.65161791e-03 -1.01869518e-04 -1.35343065e-02
      2.26309663e-03 -6.83590584e-03 -1.64352953e-02 -2.86041219e-02
      -1.92631315e-02 8.16263258e-03 6.36664825e-03 -9.45691764e-03
      -1.84865650e-02 1.58513077e-02 1.59621909e-02 5.19241439e-03
      -2.00412907e-02 9.76154674e-03 1.25750946e-02 1.08331060e-02
      1.03433589e-02 -2.35767127e-03 8.27907957e-03 -5.50515158e-03
      -9.43931445e-06 -1.82130206e-02 7.90455565e-03 1.01761268e-02
      8.27169418e-03 -6.40997896e-03 -2.33085845e-02 -1.87806087e-03
      -2.31965221e-02 -2.22269688e-02 -1.10419439e-02 -6.88497256e-03
      1.18489387e-02 1.28355864e-02 1.13686267e-02 -1.24996416e-02
      2.07581706e-02 -6.28620735e-04 -1.48897327e-03 2.05663070e-02
      4.07606969e-03 6.05999026e-03 4.83563310e-03 -4.44415025e-03
      -2.13411693e-02 -1.38458358e-02 -2.69633774e-02 -9.73293185e-03
      -8.87117442e-03 1.66650433e-02 1.34517793e-02 1.45418141e-02
      1.11888652e-03 -3.25887138e-03 -8.56868830e-03 -1.72625342e-03
      -1.67535106e-03 2.14868113e-02 1.59228835e-02 1.74888838e-02
      2.45783245e-03 2.03487184e-03 -1.55832823e-02 1.12139648e-02
      -1.91319119e-02 1.29150576e-03 1.16325580e-02 6.33624708e-03
      4.84569045e-03 2.24258266e-02 6.42808061e-03 1.36468268e-03
      2.99973530e-03 -1.89748649e-02 -3.61889452e-02 5.60621964e-04
      1.84928384e-02 2.96024475e-02 6.61806995e-03 2.50314502e-03
      -2.80021084e-03 4.43470990e-03 -1.38747329e-02 -7.49935338e-04
      1.16702616e-02 1.39504783e-02 7.49920355e-03 2.45937984e-02
      1.30162453e-02 1.18883420e-02 -5.15381247e-03 -1.01977075e-02
      -2.40500271e-02 1.71977971e-02 3.29863094e-02 3.09233740e-02
      2.38089561e-02 7.24546891e-03 -7.55516905e-03 -1.55257722e-02
      -3.51022533e-03 -2.79227700e-02 -2.68056989e-03 1.90174691e-02
      2.54256278e-02 2.34069824e-02 1.25190401e-02 2.46953918e-03
      -1.65440459e-02 -4.36569266e-02 -7.66269630e-03 5.31020202e-03
      1.34957843e-02 2.15465687e-02 3.07325721e-02 1.68299079e-02
      6.44711731e-03 -2.28619911e-02 2.09214655e-03 -2.95368321e-02
      8.96339864e-03 1.91698037e-02 3.73925120e-02 3.36670727e-02
      1.63818300e-02 1.22708092e-02 -1.59102790e-02 -3.43131013e-02
      -1.06971273e-02 6.49472512e-03 4.67020739e-03 3.24846171e-02
      1.87100917e-02 5.84839424e-03 1.32071683e-02 -1.23780896e-03
      -4.79012467e-02 -5.57740545e-03 -1.44242460e-03 8.28015245e-03
      2.52303444e-02 9.10509750e-03 6.44768309e-03 4.97878389e-03
      1.51390210e-04 -1.15339663e-02 -1.51057160e-02 7.54563604e-03
      1.19418232e-02 1.59643888e-02 2.91880518e-02 8.44708737e-03
      7.26701133e-03 -1.04793720e-02 -5.01599386e-02 -1.53193073e-02
      -4.07548435e-03 4.85762907e-03 3.23107317e-02 2.03985684e-02
      3.25352093e-03 3.79372016e-03 -7.52431154e-03 -8.14707857e-03
      -1.05421720e-02 1.04881069e-02 8.99599493e-03 2.65321136e-02
      3.71192629e-03 -8.99569364e-04 -4.49045649e-04 -1.87693126e-02
      3.92198749e-03 -2.90135220e-02 -1.18687970e-03 9.67559218e-03
      8.91166925e-03 -9.72754380e-04 -6.32443558e-03 -1.75203779e-03
      -1.39073171e-02 -8.75685830e-03 -2.20330758e-03 4.46239114e-03
      1.06896041e-03 -3.21503519e-03 7.13038119e-03 4.66876104e-03
      -4.30308748e-04 -3.03953458e-02 6.84804935e-03 -2.15169173e-02
      9.40558501e-03 7.43718538e-03 1.27675962e-02 1.39931845e-03
      -4.47897473e-03 -6.18294114e-03 -1.70333479e-02 -5.05572557e-03
      -4.81767301e-03 4.48533474e-03 1.34191461e-04 -1.56111817e-03
      -2.60016997e-03 -3.75927729e-03 -5.43679809e-03 -2.06432547e-02
      -1.59689598e-02 -9.58509557e-03 -1.72787916e-03 -1.77566661e-03
      -3.66835971e-03 -7.03448488e-04 -1.32042635e-03 -2.14564963e-03
      -5.46628563e-03 7.66396755e-04 -2.06371129e-04 -1.38291996e-03
      6.26042718e-04 -4.52061475e-04 -3.22172605e-03 -7.51205813e-03
      -9.03073605e-03 -2.66465284e-02 -1.65214669e-02 -4.44167107e-03
      -1.00232172e-03 -3.07191489e-03 -3.40814842e-03 -9.47581953e-04
      -4.23946604e-03 -3.70128639e-03 -3.57114035e-03 -9.39445337e-04
      2.27241544e-03 2.34284042e-03 -2.37193235e-04 -3.67650442e-04
      -1.51453633e-03 -3.31271393e-03 -4.29343851e-03 -6.34921296e-03
      2.50287401e-03 -4.45824442e-03 -6.56366115e-03 2.84846057e-04
      1.27605163e-04 8.54885184e-06 4.23837810e-06 8.06173775e-05
      5.76011720e-04 5.76731842e-03 8.22485890e-04 4.49231564e-04
      8.59334759e-05 3.36284356e-05 -1.84821815e-03 -6.27020188e-03
      -1.33265287e-03 -3.92405642e-03 3.28327157e-03 1.02842855e-03
      2.64962926e-03 -2.44159251e-04 -8.48335971e-04 1.22068650e-05 0.
      4.60611482e-04 1.20353850e-03 5.76731842e-03 8.54890153e-04
      9.40763566e-04 1.12688751e-04 3.99725650e-05 5.74304198e-04
      7.93844403e-04 4.88832651e-04 1.20798568e-03 2.52752821e-03
      8.73238139e-04 2.35019106e-04 6.20442384e-04 7.08316744e-04
      3.24845966e-03 1.56393682e-03 1.43135898e-03 -1.94778875e-03
      -3.10216681e-03 -4.09460487e-03 -1.00094592e-03 3.37338354e-03
      3.86844436e-03 1.30881206e-03 2.37951241e-03 3.64864274e-04
      4.87341487e-04 2.30690301e-03 9.64528299e-04 1.37497368e-03
      1.39891577e-03 1.63946359e-03 3.97184351e-03 3.14909942e-03
      1.03127665e-03 1.11241173e-03 -3.10216681e-03 -2.22387374e-03
      -6.54004980e-04 3.70890996e-03 3.95670300e-03 2.60671973e-03
      2.25345924e-04 1.35080889e-03 -2.08677817e-03 -1.76202506e-03
      -4.40418161e-03 -3.09952721e-03 9.36146476e-04 2.39909138e-03
      3.75609053e-03 -4.70887280e-05 -1.12660884e-04 -1.15791382e-02
      -1.71878729e-02 -1.61962919e-02 -7.83759821e-03 -4.37646825e-03
      -2.03668140e-03 2.59386050e-03 2.31854268e-03 1.64803199e-03
      1.71973708e-03 -4.00967384e-03 -2.59755459e-03 -5.32097695e-03
      9.53080074e-04 2.83537339e-03 4.68248175e-03 6.95108483e-03
      9.17742215e-03 -7.25083845e-03 -1.82621293e-02 -1.61735564e-02
      -1.09229153e-02 -5.24522783e-03 -1.15866213e-04 7.65693281e-03
      1.15943071e-03 1.77755742e-03 -5.13404189e-03 -2.68923193e-02
      -8.10184050e-03 -4.13671369e-03 -1.14112650e-03 2.06446275e-03
      1.01366118e-02 -2.18572080e-04 4.09049157e-04 -1.70563832e-02
      6.03581197e-04 7.64400605e-03 1.05141187e-02 2.89448188e-04
      6.73147105e-03 5.92818763e-03 6.31487137e-03 6.58271927e-03
      -6.20783539e-03 -3.03082354e-02 -9.85251181e-03 -8.81756097e-03
      -2.70152208e-03 6.73066184e-04 1.37233743e-02 2.32479791e-03
      4.08738852e-03 -1.67748686e-02 9.50853515e-04 -7.11311167e-03
      1.20390113e-02 -5.77958999e-03 2.20018649e-03 6.36529550e-03
      1.17036107e-03 1.45701470e-03 -1.01231998e-02 1.33677386e-02
      6.74617151e-03 6.10754918e-03 -3.73497792e-03 -3.60461231e-03
      2.34825211e-03 1.46147460e-02 6.76252972e-03 1.92955956e-02
      -3.73778641e-02 1.65583361e-02 8.30309466e-03 -7.68775307e-03
      -6.73104776e-03 8.60116538e-03 2.84626964e-03 7.29688350e-03
      -1.70664582e-02 1.52271939e-02 -8.58395081e-03 6.09723339e-03
      -1.02900993e-02 2.46546953e-03 2.73775565e-03 1.01271216e-02
      1.02492161e-02 4.35620314e-03 -2.92313956e-02 1.53859938e-02
      3.16133047e-03 -6.79241447e-03 4.79676435e-03 -3.29815783e-04
      1.13196410e-02 -7.41141848e-04 1.54834427e-02 4.73442982e-04
      1.54264215e-02 -7.95228966e-03 -1.18490923e-02 -5.55043295e-03
      -3.89381242e-03 3.75971105e-03 1.77713446e-02 1.49131566e-02
      3.01934835e-02 -1.07541389e-03 -3.09857782e-02 -3.16852964e-02
      -1.23369871e-02 -1.18120052e-02 -5.27661527e-03 -1.88819168e-03
      1.46530671e-02 1.13134738e-02 1.93252265e-02 -6.21989509e-03
      -1.68955196e-02 -6.88418280e-03 -2.65823007e-02 -1.28370849e-02
      1.32902116e-02 2.37185936e-02 3.68377380e-02 1.25389406e-02
      -2.51491461e-02 -4.13822383e-02 -2.84783486e-02 7.27783423e-03
      1.90359578e-02 2.54551433e-02 1.39766345e-02 1.68011617e-02
      1.72976789e-03 -2.71940511e-02 -2.57106405e-02 -1.79365557e-02
      1.03580402e-02 1.65262315e-02 1.92078762e-02 1.70461982e-02
      1.44894458e-02 -1.68341044e-02 -2.37289574e-02 -1.47103351e-02
      -1.91167016e-02 -2.50670630e-02 3.59404949e-03 1.86708178e-02
      1.96421072e-02 2.49630753e-02 -2.66755512e-03 -1.54368253e-02
      -1.74637735e-02 -3.01654711e-02 -1.86015107e-02 9.59936902e-03
      1.90035738e-02 2.40077954e-02 2.77043059e-02 -1.20897880e-02
      -3.44510027e-03 -2.42084581e-02 -1.19741876e-02 -3.14075174e-03
      -1.67782221e-03 -4.19842545e-04 2.04018690e-02 1.16731934e-02
      -9.52629000e-03 -1.99515447e-02 -9.08320118e-03 -1.02515193e-02
      -1.41779277e-02 -1.71497501e-02 -2.86904443e-02 6.04258198e-03
      1.92137100e-02 4.07291763e-03 -1.35389930e-02 -4.80025820e-03
      2.47506239e-03 -1.52496845e-02 8.57883226e-03 2.17993949e-02
      3.53276692e-02 2.25723647e-02 3.06867092e-04 -1.82158630e-02
      -2.47523841e-02 -4.26822342e-03 -2.22408883e-02 4.59890405e-04
      7.75118638e-03 2.44619250e-02 1.32383239e-02 8.23941827e-03
      -2.23287418e-02 -1.79343931e-02 -1.13577358e-02 -1.71639130e-03
      -9.30258725e-03 -1.24297682e-02 1.36215892e-03 3.25288484e-03
      -5.02765924e-03 -1.61194094e-02 -4.13360947e-04 3.66204581e-03
      2.06608704e-04 1.74645502e-02 4.02857037e-03 -2.89587234e-03
      -1.86910704e-02 -1.48852700e-02 -1.76965408e-02 8.70256312e-03
      3.98790173e-04 -1.47992661e-02 3.03439796e-03 1.24696670e-02
      9.76821594e-03 7.50898290e-03 -2.81895068e-03 -1.93086080e-02
      -6.91346033e-03 -1.52101638e-02 -1.40291024e-02 2.58671176e-02
      2.06851512e-02 6.36623194e-03 -1.18176192e-02 -9.53891594e-03
      -1.48052853e-02 6.70151366e-03 -5.50517999e-03 -1.27928425e-03
      7.48714665e-03 -8.04172177e-03 -2.00762469e-02 -2.89779548e-02
      -1.85942575e-02 -1.65202953e-02 7.22373929e-03 5.42442501e-03
      8.49992968e-03 -3.16100864e-04 -6.07985863e-03 -2.15296764e-02
      -1.06252860e-02 -1.37278363e-02 -6.48662494e-03 9.12128482e-03
      1.11975875e-02 -1.80329056e-03 1.81411318e-02 1.86280422e-02
      5.57537016e-04 -2.24487707e-02 -7.75855919e-03 -4.33899043e-03
      -3.73012549e-03 6.92641968e-03 2.09029801e-02 1.63675696e-02
      2.70313341e-02 9.73236468e-03 -1.08584370e-02 -1.78094190e-02
      -3.39138438e-03 -2.94759171e-03 2.14417055e-02 5.94009319e-03
      -6.95103256e-04 4.10433102e-04 -2.49403500e-04 -8.85425601e-03
      1.28630525e-03 4.45623975e-03 1.54407509e-02 8.09317920e-03
      1.57468803e-02 4.72556055e-03 4.02637338e-03 -2.07673684e-02
      -1.46224396e-02 -8.82664323e-03 6.89860061e-03 2.29637194e-02
      2.19111871e-02 2.21079495e-02 1.01337358e-02 2.39097849e-02
      8.42232164e-03 -1.83756575e-02 -9.45102330e-03 1.55604398e-03
      1.36190215e-02 1.69321150e-02 1.71681754e-02 1.15996599e-02
      1.48933735e-02 -2.05312446e-02 -1.53884264e-02 -1.37536786e-02
      1.30826756e-02 2.49055345e-02 1.80593953e-02 1.79324318e-02
      1.23357354e-02 7.90346880e-03 -2.46539526e-02 -7.90189207e-03
      -1.79485660e-02 -3.61558981e-03 1.24707911e-02 2.49470510e-02
      1.77025255e-02 8.45403969e-03 2.90910061e-03 -1.59087367e-02
      -2.56552510e-02 -1.00842491e-02 -9.17261001e-03 -1.92774308e-03
      2.38761287e-02 1.91780962e-02 1.78566240e-02 1.96452737e-02
      -9.09795426e-03 -1.24352043e-02 -2.91034933e-02 5.16719418e-03
      2.07888894e-02 1.95656139e-02 2.87874807e-02 7.55368266e-03
      1.04474379e-02 -3.08252522e-03 -1.90940704e-02 -1.23493671e-02
      2.38812514e-04 7.39058200e-03 2.38345396e-02 1.83703024e-02
      2.94663734e-03 -3.60320951e-03 -1.04931407e-02 -3.34455818e-02
      -1.92168579e-02 -4.21060668e-03 2.89957854e-03 2.54326556e-02
      1.25715816e-02 3.63037526e-03 7.04764528e-03 -5.52460458e-03
      -3.93162249e-03 -7.68420426e-03 6.46576844e-03 2.84668757e-03
      1.52128786e-02 2.49651037e-02 2.84476625e-03 -3.26938205e-03
      -1.59301015e-03 -2.55145356e-02 -1.99178830e-02 -3.15751624e-03
      -6.18091365e-03 2.58082431e-02 1.10473083e-02 1.56109815e-03
      9.24438413e-04 -5.30127808e-03 4.68699681e-03 -1.27125233e-02
      2.51328526e-03 1.68810645e-03 8.59421026e-03 5.15597593e-03
      5.29801194e-03 -5.17014507e-03 -2.61664633e-02 1.51055818e-02
      -1.11634582e-02 5.55520272e-03 -8.90039955e-05 6.13650819e-03
      -2.59389426e-03 -5.38045599e-04 -6.93427026e-03 -1.35449683e-02
      1.80632994e-03 6.44211890e-03 7.50265224e-03 1.43395551e-03
      -1.07498060e-03 4.21468663e-04 -4.35916102e-03 -8.78116116e-03
      -3.27774510e-02 8.57423898e-03 -2.71087121e-02 1.95776438e-03
      -4.78739711e-03 -5.50955418e-04 -9.49983578e-03 -7.92472530e-03
      -1.17616430e-02 -1.45358294e-02 -2.50420975e-03 2.38305959e-03
      5.44688897e-03 -1.41777995e-03 -7.52051501e-03 -4.41603316e-03
      -6.88293343e-03 -1.22671025e-02 -2.65819579e-02 -1.85042899e-02
      -1.62027008e-03 7.66689889e-04 -2.38682004e-03 -4.35385481e-03
      -5.87706571e-04 -3.95798730e-03 -3.12496885e-03 -2.20913091e-03
      -5.84953668e-05 3.47434264e-03 4.36505536e-03 -2.90019816e-04
      -1.25662331e-03 -5.47886360e-03 -7.22199073e-03 -1.46218324e-02
      -2.25448497e-02 -1.30180800e-02 -1.11749694e-02 2.84705369e-04
      -2.93597626e-03 -7.71173835e-03 -5.39434201e-04 -1.33333751e-03
      -3.29052168e-03 -2.91408063e-03 -3.12147290e-03 1.31106132e-03
      4.63615125e-03 1.04582484e-03 -8.85853195e-04 -8.97392689e-04
      -8.23455583e-03 -1.96785643e-03 -1.39885326e-03 1.26950117e-05
      2.93864566e-03 3.35209887e-03 -1.53952162e-03 -4.76038735e-03
      2.53728504e-04 2.03865311e-05 7.33802386e-04 9.64742736e-04
      5.14860265e-03 1.30417058e-03 2.23379419e-03 2.10758124e-04
      3.91850335e-04 -1.56807189e-04 -4.50515654e-03 -6.11264119e-03
      -3.31318262e-03 7.01922923e-04 -6.78478798e-04 3.76247475e-03
      -4.39412688e-05 -2.33869208e-03 7.58910901e-04 6.91058740e-05
      6.37652469e-04 2.60580055e-05 5.14860265e-03 8.74950376e-04
      1.89142895e-03 2.21356488e-04 1.10964000e-03 6.88402622e-04
      1.12833618e-03 3.82050239e-05 1.10740555e-04 2.78805289e-03
      2.69204890e-03 2.32413132e-03 1.01939857e-03 7.27058039e-04
      2.29406799e-03 1.33469806e-03 2.71858327e-04 4.79383976e-04
      -3.49611719e-03 2.86476756e-03 2.23713554e-03 2.64732377e-03
      2.56101112e-03 2.06812314e-04 5.18355955e-05 3.58086581e-05
      8.89208692e-04 2.51500821e-03 3.82483099e-03 2.50475574e-03
      2.13287320e-04 5.19467794e-05 6.19933533e-04 6.11009309e-05
      2.57849868e-04 1.49723142e-03 -3.49611719e-03 4.29365598e-03
      4.52185376e-03 6.44413580e-04 1.83531592e-04 2.78581493e-03
      2.54731276e-03 1.51427579e-03 1.80350302e-03 -4.21600789e-03
      7.95079046e-04 -1.65261817e-03 1.08434097e-03 3.02641746e-03
      3.29472544e-03 4.29754844e-03 3.60167655e-03 -9.56284814e-03
      -1.43584386e-02 -1.93031449e-02 -1.22168474e-02 -3.36811738e-03
      2.35769525e-03 1.28873484e-03 3.80585348e-04 5.49863966e-04
      1.28315791e-04 -3.35454079e-03 1.02988840e-03 1.41965551e-03
      5.99378487e-04 8.65887559e-04 8.84321146e-03 -4.12709865e-04
      -2.86171120e-03 -9.12323687e-03 -1.28938258e-02 -2.22807452e-02
      -1.97707918e-02 -8.16393550e-03 4.27740905e-03 4.52733459e-03
      4.30514943e-03 4.08030534e-03 -5.78899309e-03 -3.20634656e-02
      -7.46332482e-03 -5.11029270e-03 -2.00354916e-04 3.14919488e-03
      4.24048258e-03 6.68974768e-04 3.21255228e-03 -1.29477046e-02
      1.15669994e-02 -1.64160058e-02 1.38430146e-03 -9.92571749e-03
      5.74586098e-04 7.94116221e-03 2.03402853e-03 2.08180235e-03
      1.33451365e-04 -2.78212689e-02 -1.91779267e-02 -1.79741625e-02
      -8.00736155e-03 7.06452120e-05 6.71684369e-03 1.33491391e-02
      1.16172526e-02 -4.80253744e-04 2.33365614e-02 -2.45531704e-02
      -1.62107144e-02 -4.51676315e-03 -4.35923226e-03 -9.67305992e-03
      -1.62273168e-03 -7.98254914e-05 -4.89453040e-03 1.82439890e-02
      -3.58056254e-03 -4.47761407e-03 -1.27676660e-02 -1.32006435e-02
      -1.99309159e-02 1.44111738e-03 1.85723242e-03 -4.10117442e-04
      -5.66345314e-03 8.03463627e-03 -8.39403458e-03 -1.48636717e-02
      -1.51194381e-02 -1.30755901e-02 9.81685147e-03 1.14653362e-02
      1.01710819e-02 3.30348685e-02 -1.18202460e-03 -1.14519289e-02
      -1.34655889e-02 -2.60355212e-02 -2.60347556e-02 7.97193125e-03
      1.20895831e-02 2.62660868e-02 1.61376372e-02 8.83734506e-03
      1.81511813e-03 -1.86385848e-02 -3.36707868e-02 -3.12040225e-02
      -6.40081102e-03 4.30718064e-03 1.14219934e-02 2.45927274e-02
      1.13256257e-02 3.06288246e-03 -2.33093165e-02 -1.94687564e-02
      -4.55046557e-02 -5.35533065e-03 1.16018075e-02 2.65932363e-02
      3.19843553e-02 1.04859518e-02 7.19525910e-04 -2.33960729e-02
      -4.38770577e-02 -3.62738669e-02 8.73864570e-04 1.63456406e-02
      1.73512530e-02 2.19791178e-02 9.42846853e-03 2.74141710e-02
      -1.48709910e-02 -3.76013890e-02 -2.70868633e-02 2.30517774e-03
      2.39378568e-02 2.07803026e-02 4.31087390e-02 3.23187225e-02
      4.05087247e-02 8.79618432e-03 -1.46539602e-02 -4.64390628e-02
      -1.20541127e-03 8.09240807e-03 1.40091330e-02 2.89668087e-02
      -3.68374423e-03 1.17383692e-02 -1.87181309e-02 -4.10074480e-02
      -4.44844067e-02 5.36224665e-03 2.11558919e-02 1.46925235e-02
      1.79987773e-02 -2.13235393e-02 -6.49117166e-03 -2.06960011e-02
      -3.91709059e-02 -2.58779409e-03 8.14690441e-03 1.32721243e-02
      1.50942551e-02 3.53646614e-02 3.07097714e-02 5.38535863e-02
      2.06899177e-02 1.43970607e-03 2.46899854e-03 9.40062688e-04
      1.75981168e-02 7.29722902e-03 3.06644049e-02 1.54806348e-02
      3.00715528e-02 1.28998347e-02 -8.64640344e-03 -2.35903207e-02
      1.90604385e-02 2.55480036e-02 2.15838514e-02 2.02147197e-02
      -8.34075268e-03 -4.14165296e-03 -1.50576774e-02 -2.22130679e-02
      -3.71553488e-02 9.36388783e-03 2.49892268e-02 2.20388882e-02
      1.85331833e-02 -9.46100336e-03 -1.72434170e-02 -2.56421566e-02
      -2.42480580e-02 3.44536337e-03 2.61051003e-02 2.33193636e-02
      9.91486665e-03 2.39453781e-02 1.35277417e-02 2.25938633e-02
      -2.18407065e-03 -5.42611396e-03 -6.84300531e-03 1.72554851e-02
      3.51764336e-02 2.05200370e-02 2.68424116e-02 1.39810058e-04
      7.92047824e-04 -1.48492809e-02 -1.06451726e-02 -3.19663994e-02
      1.44185657e-02 2.56614145e-02 2.18835156e-02 2.14585550e-02
      -2.88561429e-03 -9.68478154e-03 -2.68399995e-02 -1.97065882e-02
      -3.25917490e-02 2.25195922e-02 2.53091529e-02 1.68134402e-02
      8.50739423e-03 -1.06579149e-02 1.33162485e-02 -7.33882049e-03
      -2.11662818e-02 -1.38945868e-02 1.92567203e-02 4.11425866e-02
      2.82411985e-02 3.02104168e-02 -4.64283535e-03 -2.36905791e-04
      -2.43276283e-02 -1.11463163e-02 -2.57923193e-02 1.81612056e-02
      2.95381974e-02 1.93033703e-02 1.58066005e-02 -2.28455905e-02
      -8.86977464e-03 -2.57964749e-02 -1.66891813e-02 -2.39121355e-02
      2.49992684e-02 3.41955125e-02 1.89889595e-02 7.99518172e-03
      7.87212607e-03 1.55094545e-02 -9.00001824e-03 -4.07626806e-03
      -8.88721645e-03 2.70630997e-02 5.46807349e-02 2.75175367e-02
      6.87202963e-04 5.37302159e-03 1.03390506e-02 -1.88396417e-03
      -1.83533281e-04 -2.81088687e-02 1.67096984e-02 3.43154594e-02
      1.47292791e-02 1.49936043e-02 -8.48411024e-03 -1.50309661e-02
      -3.25873755e-02 -2.30205487e-02 -2.65870523e-02 1.80137139e-02
      3.97528894e-02 2.05916874e-02 2.02768054e-02 1.56045100e-03
      -8.05302802e-03 -3.55352089e-02 -4.22368869e-02 4.78738686e-04
      1.74112078e-02 4.60064635e-02 2.59333421e-02 6.63641840e-04
      8.39503948e-03 7.56586576e-03 7.56266434e-03 -2.73381220e-03
      3.28118494e-03 2.04928182e-02 2.99585648e-02 1.09695056e-02
      -1.19155198e-02 5.27975755e-03 2.44582817e-02 2.07725111e-02
      5.44467987e-03 -3.00434623e-02 1.73082333e-02 3.86538655e-02
      2.96300203e-02 7.15685729e-03 6.26407424e-03 -7.94179365e-03
      -2.27700844e-02 -5.31003624e-02 -2.56441198e-02 6.90055953e-04
      2.90316306e-02 7.80295115e-03 3.45049682e-03 8.37237015e-03
      -1.11532595e-03 -7.69870309e-03 -2.37710979e-02 8.15182924e-03
      2.85663605e-02 2.20700093e-02 -3.88405519e-04 2.22460672e-04
      -5.64750424e-03 1.72647778e-02 2.14365330e-02 9.67766251e-03
      9.22670402e-03 1.44118611e-02 1.14465756e-02 5.48732188e-03
      -1.42105948e-02 4.46184026e-03 1.10221729e-02 1.10469144e-02
      1.21561075e-02 -2.55905241e-02 -6.55164197e-03 -1.25467777e-05
      -6.53945981e-03 1.08065968e-02 4.41944646e-03 2.14453880e-03
      -5.96567569e-03 -2.30537280e-02 -2.61326283e-02 -1.42070763e-02
      -1.08682774e-02 -7.71259423e-03 -1.31353000e-02 1.34543162e-02
      6.22249674e-03 -2.68352637e-03 -1.50069501e-02 6.97813695e-03
      5.61194448e-03 -5.74422593e-04 6.35331206e-04 -2.44448371e-02
      6.19109138e-04 -2.08011712e-03 7.34036264e-04 1.10863820e-02
      1.06780557e-02 6.95826719e-03 -2.31154030e-04 -9.77076963e-03
      1.33982971e-02 -1.03849871e-02 9.92970169e-03 9.40714497e-03
      5.73263317e-03 -1.74625665e-02 -2.63992548e-02 -3.22150998e-02
      -1.06476704e-02 -1.02776997e-02 2.27342490e-02 1.00342575e-02
      7.58239999e-03 -9.43685696e-03 -1.23441881e-02 -1.26728732e-02
      -2.64935475e-02 -2.12243944e-02 2.84911040e-02 -2.86413799e-03
      1.11542018e-02 1.00521343e-02 -7.54626142e-03 5.21657476e-03
      -1.79806317e-03 -9.20297578e-03 -3.10082361e-02 2.53085587e-02
      -2.68646944e-02 8.57245363e-03 1.10005541e-03 -2.84839771e-03
      -4.52502631e-03 -7.46465754e-03 -1.08601563e-02 -9.99638997e-03
      4.61522210e-03 7.52292748e-04 5.97799756e-03 -2.45529431e-04
      -7.49243656e-03 -6.92249555e-03 -1.81695577e-02 -3.63159291e-02
      -4.16540094e-02 3.09957527e-02 -9.36871860e-03 8.59514065e-03
      1.72689231e-03 -8.28594342e-03 -8.41021352e-03 -8.42667092e-03
      -7.65252020e-03 -9.23410058e-03 1.87391392e-03 5.74307749e-04
      3.52320564e-03 5.14137326e-04 -8.07912368e-03 -1.54080044e-03
      -7.07761338e-03 -1.37434406e-02 -2.04383601e-02 -8.60780384e-03
      -7.81236589e-03 -1.22827012e-03 -1.23962981e-03 -6.50256639e-03
      -1.01848226e-03 -5.47111849e-04 -3.34559055e-03 -3.18157626e-03
      -3.93254263e-03 -4.79529728e-04 4.00262466e-03 3.65473703e-03
      1.16166688e-04 -1.18956463e-02 -1.00373710e-02 -1.16394004e-02
      -2.59522647e-02 -1.02011822e-02 -1.05401687e-02 -9.62576523e-05
      -1.77937525e-03 -8.31194408e-03 -1.89685915e-03 -1.64189201e-03
      -2.15641456e-03 -4.94119152e-03 -3.92453000e-03 -3.38978687e-04
      3.07052862e-03 3.79546382e-03 2.82989058e-04 8.15639738e-04
      -5.31403755e-04 -1.10090338e-03 -2.27055978e-03 -2.92901089e-03
      4.02707170e-04 4.85493569e-03 3.81779694e-03 2.75984267e-03
      1.20926474e-03 2.22173359e-04 8.72429868e-04 1.66493192e-04
      4.35467763e-03 9.25761124e-04 1.54044130e-03 6.09232753e-04
      2.10269401e-03 -3.67516023e-03 -4.08878596e-03 -1.91028090e-03
      -5.38838003e-03 -3.88310710e-03 1.72043114e-03 5.17059397e-03
      4.89449175e-03 1.80462655e-03 2.04323063e-04 1.48673367e-04
      1.56195092e-04 8.03947405e-05 2.45311740e-03 8.44133494e-04
      1.70743209e-03 1.05979550e-03 1.14644016e-03</_></support_vectors>
  <uncompressed_sv_total>28</uncompressed_sv_total>
  <uncompressed_support_vectors>
    <_>
      0. 0. 0. 0. 7.81643391e-02 0. 0. 0. 0. 4.29387484e-03
      1.80241233e-03 3.72640369e-03 9.40725114e-03 6.97809339e-01
      1.02235461e-02 0. 4.27484978e-04 5.65108098e-03 0. 0. 0. 0.
      8.77899081e-02 0. 0. 0. 0. 1.60213262e-02 2.68908055e-03
      2.54144240e-03 1.03377113e-02 6.97809339e-01 6.48442283e-02
      8.11719859e-04 1.21345825e-03 2.22898833e-02 1.65291727e-02
      1.07331118e-02 1.23035433e-02 1.15951132e-02 6.20424151e-01
      1.25170816e-02 1.81569858e-03 2.33039912e-03 1.85506288e-02
      2.79616266e-02 1.63297709e-02 1.33326594e-02 9.68059991e-03
      8.61910433e-02 2.64325738e-03 1.04655633e-02 8.90823081e-03
      3.08129229e-02 6.56409487e-02 1.35115953e-02 7.60946749e-03
      1.25173694e-02 6.20424151e-01 7.19801784e-02 4.99809301e-03
      6.39417674e-03 8.51508677e-02 1.11471362e-01 2.23034620e-02
      1.62637368e-01 1.23444781e-01 3.47040713e-01 9.59941465e-03
      9.81843937e-03 1.29346531e-02 1.42357513e-01 2.32041217e-02
      5.28614558e-02 7.65261278e-02 1.22881448e-02 1.25495056e-02
      2.22156508e-04 4.73019015e-03 4.06138925e-03 3.99446227e-02
      2.63885885e-01 1.39035270e-01 1.71182126e-01 1.17533337e-02
      1.09757101e-02 6.91604582e-05 4.58285771e-03 5.10135666e-03
      3.12039703e-01 4.99095470e-02 1.89836979e-01 3.12039703e-01
      2.23025352e-01 3.06782454e-01 4.55600629e-03 5.19979186e-03
      7.14520272e-03 8.45656022e-02 3.12039703e-01 3.12039703e-01
      3.12039703e-01 2.07831979e-01 2.23083779e-01 3.59484297e-03
      1.24590257e-02 1.40746702e-02 3.12039703e-01 3.06723207e-01
      1.36499465e-01 4.85880673e-02 3.45176319e-03 2.45488505e-03
      6.59294092e-05 1.36324379e-03 2.11315881e-03 2.75730044e-01
      3.11196297e-01 1.92019880e-01 3.65042910e-02 1.17608206e-02
      3.45102488e-03 7.02248130e-04 9.61911108e-04 9.50007979e-03
      3.11196297e-01 3.11196297e-01 2.46061608e-01 1.13149248e-01
      3.33491489e-02 2.48616356e-02 1.84053008e-03 1.00010699e-02
      8.02975241e-03 3.11196297e-01 3.11196297e-01 3.11196297e-01
      9.93742123e-02 5.01317531e-02 2.51670331e-02 6.93671219e-03
      1.64171774e-02 2.88493391e-02 3.11196297e-01 3.16106915e-01
      1.06786586e-01 5.21162190e-02 4.59656212e-03 2.82436260e-03
      1.00184220e-03 1.06490648e-03 9.44579020e-03 3.16106915e-01
      3.16106915e-01 1.39074236e-01 1.35811687e-01 1.06163288e-03
      3.03628994e-03 5.12108905e-04 1.49820908e-03 3.58331250e-03
      3.16106915e-01 3.16106915e-01 2.05175117e-01 1.02198459e-01
      2.05747578e-02 1.83735564e-02 7.60141807e-03 8.65806919e-03
      6.41149953e-02 3.16106915e-01 3.16106915e-01 2.37065554e-01
      1.50652394e-01 7.96152186e-03 1.62496492e-02 2.04491373e-02
      9.71005950e-03 9.01050121e-02 3.16106915e-01 3.25567126e-01
      6.75912723e-02 5.34372479e-02 2.36760330e-04 3.56050231e-03
      7.22649202e-05 1.06935354e-03 7.35463807e-03 3.25567126e-01
      3.25567126e-01 1.58267245e-01 7.71134347e-02 5.62853459e-03
      9.70183127e-03 1.20046979e-03 2.08452856e-03 8.36581178e-03
      3.25567126e-01 3.25567126e-01 1.85476810e-01 8.85669440e-02
      9.52607766e-03 1.67660061e-02 2.12619305e-02 7.41086388e-03
      5.34837879e-02 3.25567126e-01 3.25567126e-01 1.97535738e-01
      1.08784646e-01 3.84337008e-02 2.88725533e-02 3.08335498e-02
      2.06051301e-02 9.78832319e-02 3.25567126e-01 3.16681564e-01
      1.29283547e-01 9.20170918e-02 8.96888413e-03 1.55802704e-02
      2.63763824e-03 1.73788099e-03 1.18185254e-02 3.16681564e-01
      3.16681564e-01 1.34171113e-01 6.62708953e-02 2.95309606e-03
      8.26652907e-03 2.35473830e-03 4.40447219e-03 1.45323649e-02
      3.16681564e-01 3.16681564e-01 1.88128442e-01 1.31406188e-01
      4.27649207e-02 4.36560959e-02 1.98353156e-02 3.14467773e-02
      9.11272913e-02 3.16681564e-01 3.16681564e-01 1.95569783e-01
      1.37580141e-01 6.46139309e-02 5.67788333e-02 4.02740613e-02
      5.38100824e-02 1.04897447e-01 3.16681564e-01 2.99414426e-01
      1.92427367e-01 1.04598716e-01 7.02544232e-04 4.20862762e-03
      5.29020559e-03 6.41192310e-03 7.67662516e-03 2.99414426e-01
      2.99414426e-01 1.50674522e-01 8.64443779e-02 2.32055187e-02
      9.50611159e-02 3.58815193e-02 6.39117649e-03 1.69921108e-02
      2.99414426e-01 2.99414426e-01 1.72334209e-01 1.04957208e-01
      3.34113352e-02 4.26126644e-02 5.78661412e-02 5.65967858e-02
      1.36210442e-01 2.99414426e-01 2.99414426e-01 2.49061644e-01
      1.90456674e-01 4.38268594e-02 7.97948688e-02 7.60165527e-02
      2.26405803e-02 1.12503000e-01 2.92725772e-01 3.04490983e-01
      1.10815704e-01 1.06088959e-01 3.68756577e-02 1.80078134e-01
      6.85510039e-02 1.64187718e-02 2.31185500e-02 3.04490983e-01
      3.04490983e-01 1.64107829e-01 8.42664465e-02 2.21534297e-02
      1.24442339e-01 4.51921970e-02 1.56734008e-02 2.03021616e-02
      3.04490983e-01 3.04490983e-01 1.29781038e-01 1.68180123e-01
      8.20347890e-02 9.34700966e-02 8.69577453e-02 8.85654613e-03
      5.65623716e-02 3.04490983e-01 3.04490983e-01 1.74428284e-01
      8.69086683e-02 5.25888838e-02 9.25420001e-02 1.29494160e-01
      3.12058162e-02 3.49325910e-02 3.04490983e-01 2.90508717e-01
      1.56333089e-01 3.81853320e-02 4.31276783e-02 7.24613592e-02
      3.61948758e-02 2.90097445e-02 4.95647080e-02 2.90508717e-01
      2.90508717e-01 1.35532320e-01 3.90751138e-02 6.94568604e-02
      7.90941045e-02 3.51367667e-02 4.93980013e-02 1.28244475e-01
      2.90508717e-01 2.90508717e-01 1.82258934e-01 6.04970641e-02
      2.83614993e-02 1.15124524e-01 9.30712596e-02 6.19529262e-02
      1.11884795e-01 2.90508717e-01 2.90508717e-01 1.46728799e-01
      3.95977423e-02 3.14405076e-02 1.20076537e-01 8.06806087e-02
      1.66902274e-01 2.90508717e-01 2.90508717e-01 2.73514122e-01
      1.26348004e-01 4.76348102e-02 2.89872717e-02 6.75726309e-02
      3.03382166e-02 3.64977308e-02 1.08668551e-01 2.73514122e-01
      2.73514122e-01 1.35001361e-01 7.64390305e-02 2.10190788e-02
      9.95725244e-02 3.92237492e-02 4.75094393e-02 5.81407063e-02
      2.73514122e-01 2.73514122e-01 1.51271433e-01 1.51627257e-01
      9.05981436e-02 1.47591591e-01 1.30357653e-01 1.92914948e-01
      2.33130276e-01 2.70636082e-01 1.87773257e-01 1.10865101e-01
      1.70527592e-01 1.37046933e-01 2.73514122e-01 2.39020362e-01
      1.31784469e-01 1.01407416e-01 1.76762000e-01 3.02506536e-01
      1.07481584e-01 6.92599267e-02 3.09345387e-02 1.33421838e-01
      3.90449576e-02 4.63623628e-02 5.32728769e-02 3.02506536e-01
      2.44906932e-01 6.52098283e-02 6.81982338e-02 1.30103335e-01
      3.02506536e-01 2.44007006e-01 3.02506536e-01 1.11419193e-01
      3.02506536e-01 6.78585693e-02 5.75829558e-02 6.24747090e-02
      7.56403431e-02 3.02506536e-01 1.72948882e-01 8.81350562e-02
      5.63447438e-02 7.71336555e-02 5.06044179e-02 2.09744312e-02
      1.83701031e-02 1.35226771e-01 3.02506536e-01 2.04093888e-01
      1.41959056e-01 7.35585243e-02 6.19057417e-02 4.36891317e-02
      2.83761211e-02 2.95887534e-02 7.06252232e-02 2.78365672e-01
      1.75916642e-01 2.48445541e-01 5.15056103e-02 6.25830218e-02
      9.58937630e-02 5.38782217e-02 4.14339863e-02 7.25076869e-02
      2.78365672e-01 1.90935716e-01 1.85295090e-01 5.88014424e-02
      1.25495881e-01 8.40141922e-02 1.31669253e-01 1.01906359e-01
      1.11130118e-01 2.78365672e-01 1.65806293e-01 1.23811394e-01
      4.43765298e-02 1.01942673e-01 1.84555829e-01 2.76151419e-01
      2.07400694e-01 8.26071650e-02 2.78365672e-01 2.78365672e-01
      2.78365672e-01 7.80302733e-02 2.16435269e-01 6.72554523e-02
      5.01871146e-02 3.47523130e-02 1.01122178e-01 3.48173380e-01
      2.13111833e-01 1.60387561e-01 1.07654504e-01 7.12651759e-02
      8.96577910e-03 1.80316605e-02 1.55704599e-02 4.78970632e-02
      3.48173380e-01 8.26826394e-02 4.87231351e-02 4.44346294e-02
      4.30459064e-03 1.15281008e-01 1.72250286e-01 1.00890554e-01
      1.02832466e-01 3.48173380e-01 3.48173380e-01 3.48173380e-01
      1.70249432e-01 1.08350992e-01 1.87386889e-02 4.58857007e-02
      2.86487155e-02 6.76423088e-02 3.48173380e-01 1.49505675e-01
      9.30522606e-02 7.37276450e-02 2.42000795e-03 1.91026847e-04
      6.27172063e-04 9.67844296e-03 3.31021510e-02 6.94122136e-01
      6.37325495e-02 9.89679340e-03 3.10927251e-04 0. 0. 0. 0. 0. 0. 0.
      0. 0. 0. 7.76976068e-03 1.42064868e-02 1.72715262e-02
      3.84383835e-02 6.94122136e-01 1.38175130e-01 5.21477833e-02
      1.61308497e-02 0. 0. 0. 0. 0. 0. 0. 0. 0. 0. 0. 0. 0. 0.
      7.76060745e-02 0. 0. 0. 0. 9.97336581e-03 1.67397992e-03
      5.30846592e-04 5.71752340e-03 6.98704958e-01 4.56534587e-02
      2.19119131e-03 9.56907286e-04 1.22671155e-02 0. 0. 0. 0.
      8.72486085e-02 0. 0. 0. 0. 3.45146214e-03 5.44672192e-04
      1.34052767e-03 7.08122039e-03 6.98704958e-01 2.34209634e-02
      2.81937490e-03 1.87909533e-03 3.62410606e-03 2.25566588e-02
      1.76087972e-02 4.51788120e-03 1.13564599e-02 3.40130329e-01
      1.80128366e-02 6.11830316e-03 3.31015722e-03 2.41260510e-02
      1.17779776e-01 8.12916756e-02 7.74766877e-02 6.22456148e-02
      3.29851657e-01 1.90255102e-02 6.15292862e-02 1.26589879e-01
      1.17815249e-01 2.33834665e-02 3.64963710e-02 1.15252532e-01
      9.86838713e-02 3.40130329e-01 2.68860199e-02 1.11343972e-02
      5.60982758e-03 1.91271640e-02 2.58439034e-01 1.94329381e-01
      3.08726698e-01 2.69429654e-01 3.40130329e-01 5.83503805e-02
      1.31847233e-01 3.40130329e-01 1.98289901e-01 7.99749568e-02
      9.54393968e-02 3.03575873e-01 1.87406555e-01 3.03575873e-01
      2.52518561e-02 3.53081785e-02 1.14071704e-01 8.31636488e-02
      8.78891423e-02 1.31655857e-01 3.03575873e-01 1.72164232e-01
      3.03575873e-01 2.03863382e-02 1.25304973e-02 2.15170495e-02
      1.07973106e-01 2.42740199e-01 1.44387215e-01 1.87621847e-01
      1.67045027e-01 3.03575873e-01 4.66008969e-02 7.26637766e-02
      3.03575873e-01 1.67960837e-01 6.37306869e-02 5.73979691e-02
      8.85600373e-02 1.04086906e-01 3.03575873e-01 4.93542403e-02
      1.30990632e-02 5.65352514e-02 4.06416617e-02 1.93841144e-01
      1.27579033e-01 8.97344798e-02 1.04581788e-01 1.32595599e-01
      3.77532095e-02 5.66210970e-02 1.51963951e-02 2.33490422e-01
      2.56881893e-01 2.56881893e-01 2.07242727e-01 1.27154246e-01
      1.78184137e-01 9.57299769e-02 1.21131465e-01 5.44538945e-02
      2.56881893e-01 3.93146165e-02 7.48696253e-02 8.75242203e-02
      1.48418427e-01 2.56881893e-01 1.93170577e-01 1.54057413e-01
      2.50142273e-02 4.73923646e-02 2.34883904e-01 1.72511756e-01
      1.81978494e-01 1.59092233e-01 2.56881893e-01 2.56881893e-01
      2.56881893e-01 8.42851624e-02 1.29699752e-01 2.35375270e-01
      2.31401667e-01 1.82808772e-01 5.20063639e-02 1.22334376e-01
      5.55510148e-02 4.97982353e-02 1.23896986e-01 2.35375270e-01
      2.35375270e-01 2.35375270e-01 1.75581023e-01 2.72189472e-02
      1.15568131e-01 1.03108242e-01 4.36853617e-02 1.93623051e-01
      2.13897124e-01 1.89714774e-01 1.81573346e-01 1.47320509e-01
      6.70910329e-02 2.20493853e-01 1.82455987e-01 1.92449644e-01
      1.05828822e-01 8.04995149e-02 1.21028416e-01 2.35375270e-01
      2.35375270e-01 9.81953591e-02 2.35375270e-01 1.99138284e-01
      1.78400189e-01 1.10029116e-01 6.25202432e-02 1.91561028e-01
      2.50076860e-01 1.70932278e-01 4.72592339e-02 7.88110420e-02
      7.07600266e-02 2.12196391e-02 7.17585459e-02 1.25650823e-01
      2.26160303e-01 2.04788476e-01 2.14842573e-01 1.35494798e-01
      9.70413759e-02 8.64130557e-02 3.98958698e-02 1.05683811e-01
      2.50076860e-01 1.21438064e-01 2.50076860e-01 2.50076860e-01
      1.64410159e-01 1.95470348e-01 9.54009369e-02 6.04496226e-02
      3.17662992e-02 1.16897337e-01 1.79318950e-01 2.50076860e-01
      2.50076860e-01 2.50076860e-01 2.50076860e-01 7.85567909e-02
      2.12935321e-02 2.14019474e-02 2.50076860e-01 1.74373403e-01
      1.70150876e-01 1.74232215e-01 1.60912722e-01 1.29961893e-01
      5.92047237e-02 8.08995217e-02 1.29736423e-01 2.30998561e-01
      2.30998561e-01 1.94347858e-01 1.81564853e-01 1.74459398e-01
      1.77591234e-01 1.06755085e-01 9.79652107e-02 1.60119951e-01
      2.30998561e-01 1.55725509e-01 1.80319428e-01 2.30998561e-01
      2.30998561e-01 2.30998561e-01 8.13496411e-02 8.90732259e-02
      5.89934587e-02 2.06130818e-01 1.67147249e-01 1.16284505e-01
      1.52182102e-01 1.82234496e-01 2.09883556e-01 1.34744301e-01
      1.56996459e-01 1.27033845e-01 1.43866092e-01 2.30365679e-01
      1.78021058e-01 1.40890032e-01 1.26557514e-01 1.53100714e-01
      1.59114346e-01 1.10632703e-01 2.02944919e-01 2.21282884e-01
      2.30365679e-01 2.30365679e-01 2.30365679e-01 1.07587084e-01
      1.79038242e-01 1.91694409e-01 8.25747997e-02 1.23720489e-01
      1.58741206e-01 1.39961109e-01 1.20256156e-01 1.00775622e-01
      1.36822790e-01 1.76217645e-01 1.23545900e-01 1.11022882e-01
      1.25175521e-01 1.10179290e-01 1.49537504e-01 1.96858734e-01
      2.26649091e-01 1.50152743e-01 2.15842471e-01 2.08994284e-01
      1.90671057e-01 1.36352554e-01 9.69215482e-02 2.41749555e-01
      1.76379159e-01 2.41749555e-01 1.39187783e-01 1.37778297e-01
      1.38626561e-01 6.34377003e-02 7.41525292e-02 1.87450856e-01
      2.41749555e-01 1.32514939e-01 1.41245767e-01 1.15313679e-01
      9.98321921e-02 1.77872136e-01 1.38278142e-01 1.39345512e-01
      2.41749555e-01 1.23083979e-01 2.02752337e-01 2.41749555e-01
      1.22096069e-01 1.67837724e-01 1.53107852e-01 2.03165948e-01
      1.21460862e-01 9.65094492e-02 9.82527658e-02 1.45957917e-01
      1.78665847e-01 1.10278100e-01 9.65838954e-02 8.85446295e-02
      2.41749555e-01 2.41749555e-01 2.09428579e-01 2.22914293e-01
      7.15231001e-02 4.01812568e-02 7.50729889e-02 1.77124619e-01
      1.39312223e-01 9.61918533e-02 9.66282412e-02 2.38875344e-01
      2.38875344e-01 7.82115608e-02 8.19292516e-02 1.00108922e-01
      2.38875344e-01 1.66231662e-01 1.75842404e-01 2.16182426e-01
      2.38875344e-01 1.34431139e-01 9.74299684e-02 4.06926908e-02
      7.56233484e-02 1.30519629e-01 7.98972771e-02 1.67407230e-01
      1.97416693e-01 2.19408020e-01 2.06789866e-01 2.32637078e-01
      1.98695630e-01 1.40685260e-01 2.38875344e-01 1.61351889e-01
      1.72293082e-01 1.36976525e-01 2.20466524e-01 1.94708213e-01
      8.01539272e-02 1.64988548e-01 1.18000209e-01 1.76672965e-01
      1.32587597e-01 1.51031554e-01 1.84018672e-01 2.23007098e-01
      7.45186061e-02 6.32581189e-02 1.60345420e-01 1.36073798e-01
      2.44225726e-01 2.44225726e-01 1.09972179e-01 1.03806086e-01
      1.37784481e-01 1.21316396e-01 1.48634031e-01 2.25320593e-01
      1.39661178e-01 2.44225726e-01 1.18423827e-01 1.49689883e-01
      1.26942053e-01 1.96215183e-01 6.09565601e-02 4.87455912e-02
      1.22677274e-01 2.44225726e-01 2.44225726e-01 2.19920322e-01
      2.10627899e-01 1.39098063e-01 1.77943811e-01 4.37696874e-02
      6.77128509e-02 1.13024235e-01 1.28295928e-01 3.41239721e-01
      3.41239721e-01 1.43700749e-01 1.14691019e-01 8.68040100e-02
      8.20378885e-02 4.92775775e-02 4.02041413e-02 1.26492471e-01
      2.50677824e-01 8.89597684e-02 3.54485102e-02 8.96159708e-02
      7.61815831e-02 5.73490150e-02 4.73566800e-02 7.70652965e-02
      3.41239721e-01 3.41239721e-01 3.41239721e-01 2.97725409e-01
      1.56673104e-01 1.25723660e-01 8.06621090e-02 5.56886420e-02
      6.39176369e-02 7.76429623e-02 1.98079497e-01 1.09248042e-01
      6.37717023e-02 5.90502657e-02 7.59228989e-02 1.20252095e-01
      1.25851735e-01 1.02134041e-01 1.30301505e-01 2.31544077e-01
      7.83977732e-02 2.25280374e-02 5.44276647e-02 9.99901518e-02
      1.39627114e-01 2.38866687e-01 1.76893800e-01 2.06598207e-01
      3.14934582e-01 3.14934582e-01 3.14934582e-01 6.22140318e-02
      1.24857783e-01 5.46875522e-02 6.81260303e-02 5.77872358e-02
      8.54800269e-02 1.15354173e-01 7.71674514e-02 2.78664269e-02
      1.70122590e-02 3.80866602e-02 4.34224680e-02 9.14980844e-02
      6.35869876e-02 2.53070712e-01 3.14934582e-01 2.99296826e-01
      2.93550313e-01 6.03347048e-02 3.74511555e-02 3.32701318e-02
      1.06197439e-01 4.37790155e-02 1.55789256e-01 3.26326221e-01
      2.87868470e-01 2.92672306e-01 7.94018954e-02 1.87334865e-02
      1.96408574e-02 5.44711128e-02 1.47182755e-02 7.13184252e-02
      3.26326221e-01 1.01860046e-01 8.75061303e-02 5.97643629e-02
      3.41469247e-04 4.48233895e-02 3.32593955e-02 1.66181289e-02
      1.98292568e-01 3.26326221e-01 2.55476743e-01 3.26326221e-01
      1.42855644e-01 2.33793352e-02 1.02642082e-01 3.72134708e-02
      1.10668680e-02 8.84734169e-02 3.26326221e-01 9.09873694e-02
      1.72863230e-01 1.78664640e-01 3.73691246e-02 2.88936403e-02
      4.85234708e-02 9.01455060e-03 4.11139131e-02 6.26708686e-01
      1.14888944e-01 7.57698566e-02 5.43784201e-02 0. 0. 0. 0. 0. 0. 0.
      0. 0. 0. 2.54876137e-01 7.78393820e-02 1.64005235e-02
      9.14011747e-02 6.26708686e-01 5.90294190e-02 1.00422665e-01
      2.84222245e-01 8.57984722e-02 0. 0. 0. 0. 0. 0. 0. 0. 0. 0. 0. 0.
      0. 7.54951015e-02 0. 0. 0. 0. 2.45506200e-03 4.96721768e-04
      1.64864433e-03 1.03918510e-02 6.99508607e-01 2.09394805e-02
      1.19114202e-03 2.38696975e-03 2.96420418e-03 0. 0. 0. 0.
      8.55949000e-02 0. 0. 0. 0. 1.33216812e-03 1.40353013e-03
      3.22145037e-03 1.51049951e-02 6.99508607e-01 2.32046526e-02
      3.11714102e-04 2.18982436e-03 3.13932635e-03 5.20515675e-03
      6.74258498e-03 7.21015632e-02 9.24510062e-02 4.00714070e-01
      2.69180555e-02 2.23097671e-03 2.08381191e-03 4.10056440e-03
      7.37127289e-02 4.33172807e-02 1.73261449e-01 2.42331192e-01
      4.00714070e-01 5.89253828e-02 2.37679612e-02 8.19364339e-02
      4.76366542e-02 1.28322572e-03 1.85221527e-03 3.99930961e-02
      2.22478002e-01 4.00714070e-01 4.78792898e-02 8.87018337e-04
      1.21259934e-03 1.82617526e-03 1.19003821e-02 1.98242199e-02
      6.95090219e-02 4.00714070e-01 4.00714070e-01 1.02643222e-01
      9.63716488e-03 4.02304530e-03 9.23695695e-03 2.13974461e-01
      1.03878848e-01 1.68213204e-01 2.89128393e-01 3.41813952e-01
      1.06870443e-01 4.95713465e-02 2.24500135e-01 1.34775668e-01
      6.41068593e-02 5.16949594e-02 5.56569658e-02 1.22811131e-01
      3.41813952e-01 1.23089544e-01 4.10645008e-02 5.35938367e-02
      6.00924417e-02 2.49141697e-02 3.17117162e-02 5.86926341e-02
      3.41813952e-01 3.41813952e-01 1.45507663e-01 5.30353673e-02
      8.32437351e-03 2.01893467e-02 1.02100959e-02 7.67811388e-03
      3.44954580e-02 2.51811713e-01 3.41813952e-01 1.27336249e-01
      4.93917577e-02 5.32802613e-03 1.51552260e-02 1.60373338e-02
      3.37286182e-02 4.54537645e-02 1.09065384e-01 2.66791373e-01
      1.67623326e-01 1.79592952e-01 6.23861849e-02 4.04326394e-02
      1.13149077e-01 9.81336758e-02 9.40122828e-02 9.56484303e-02
      2.66791373e-01 2.66791373e-01 2.66791373e-01 1.41580582e-01
      1.33330405e-01 1.86664294e-02 3.41412872e-02 8.35498571e-02
      2.37517267e-01 2.66791373e-01 1.01204701e-01 1.28527164e-01
      1.22830629e-01 6.08274303e-02 1.35200098e-01 1.16355687e-01
      1.54023856e-01 1.88064545e-01 2.66791373e-01 1.81226835e-01
      2.66791373e-01 2.66791373e-01 1.85003012e-01 1.21612146e-01
      1.30755439e-01 8.46574977e-02 5.06212562e-02 1.82883814e-01
      2.20262468e-01 2.48623207e-01 1.11273028e-01 1.20959900e-01
      9.56062526e-02 1.78243816e-01 2.06965819e-01 1.58454612e-01
      1.74470514e-01 2.19331488e-01 2.48623207e-01 1.22774288e-01
      9.55680683e-02 9.62079465e-02 9.27057266e-02 9.33512375e-02
      6.72657415e-02 1.60847098e-01 1.80488020e-01 2.48623207e-01
      1.74361318e-01 1.28522202e-01 9.79606658e-02 1.25037834e-01
      2.48623207e-01 1.64572790e-01 1.49070561e-01 2.36826524e-01
      2.48623207e-01 2.03647465e-01 1.33027807e-01 9.48850736e-02
      1.72807604e-01 2.49965772e-01 1.76892057e-01 1.30373746e-01
      7.81353265e-02 5.60769401e-02 3.19543444e-02 1.30731493e-01
      1.21657804e-01 2.49965772e-01 2.49965772e-01 2.49965772e-01
      1.95146263e-01 5.38727343e-02 6.62238710e-03 1.23610310e-02
      2.45316416e-01 1.34704649e-01 1.61354080e-01 2.49965772e-01
      1.98693082e-01 9.28204805e-02 1.12109184e-01 1.07964829e-01
      8.86329487e-02 1.72520250e-01 1.61526859e-01 1.92867368e-01
      2.49965772e-01 2.49965772e-01 1.35708258e-01 1.06578082e-01
      1.04015037e-01 1.21176668e-01 2.38240406e-01 1.32316187e-01
      1.78576082e-01 2.66123891e-01 2.33762830e-01 1.63485840e-01
      7.11677298e-02 1.11545384e-01 7.44253024e-02 2.02078462e-01
      1.16200909e-01 6.74957410e-02 8.26687738e-02 6.97642043e-02
      8.67864788e-02 1.12672642e-01 2.71814317e-01 2.24696368e-01
      1.43451720e-01 1.62171975e-01 9.06110704e-02 1.46870703e-01
      1.31685346e-01 1.34841844e-01 9.86632556e-02 2.71814317e-01
      2.21688524e-01 2.44545549e-01 1.47486255e-01 3.33098210e-02
      4.34980318e-02 3.69974226e-02 6.15659021e-02 1.18710160e-01
      2.71814317e-01 2.71814317e-01 2.46844545e-01 7.45655298e-02
      6.51336834e-02 5.15333116e-02 5.51322065e-02 8.75331163e-02
      1.04896970e-01 2.60784864e-01 2.15483829e-01 1.03426605e-01
      8.34345073e-02 1.39890596e-01 1.73318669e-01 9.51344371e-02
      1.33311853e-01 1.88235343e-01 2.37810314e-01 1.82413295e-01
      1.20634556e-01 7.99452513e-02 9.47584435e-02 7.02114254e-02
      9.84734520e-02 9.62601751e-02 1.60181418e-01 2.60784864e-01
      2.60784864e-01 2.60784864e-01 9.70088989e-02 2.47850597e-01
      2.32313469e-01 1.46286458e-01 1.09320767e-01 1.52999744e-01
      2.60784864e-01 1.68376669e-01 2.60784864e-01 9.58573446e-02
      1.78597853e-01 2.35707924e-01 7.01360628e-02 1.26158029e-01
      2.11189196e-01 2.35694766e-01 1.39176711e-01 1.18097618e-01
      9.60598290e-02 1.26538411e-01 1.59042582e-01 9.37809423e-02
      9.41660702e-02 1.84558555e-01 2.35707924e-01 1.58765793e-01
      1.50223345e-01 1.83392480e-01 2.16510877e-01 2.04719692e-01
      8.57573599e-02 8.12548101e-02 1.38865083e-01 1.72405481e-01
      1.12039149e-01 2.35707924e-01 2.35707924e-01 2.30388701e-01
      1.71786115e-01 1.14657290e-01 7.34143034e-02 1.69058681e-01
      1.82920828e-01 1.15446173e-01 2.35707924e-01 1.03061773e-01
      1.33997723e-01 1.46101147e-01 9.19546410e-02 7.69900680e-02
      8.48100856e-02 1.88651025e-01 1.57927528e-01 1.60064921e-01
      1.06780022e-01 2.46792197e-01 2.46792197e-01 1.46875978e-01
      2.46792197e-01 1.28999591e-01 2.12732464e-01 1.21915817e-01
      1.41608045e-01 1.69464469e-01 2.19511285e-01 2.46792197e-01
      2.05705434e-01 6.39142171e-02 8.61272067e-02 1.77971631e-01
      7.85383508e-02 1.32155463e-01 7.48657361e-02 1.89466134e-01
      2.46792197e-01 2.46792197e-01 2.46792197e-01 1.37951836e-01
      1.71436816e-01 5.71893305e-02 6.73049837e-02 5.91054931e-02
      1.48997679e-01 2.21957535e-01 1.68214083e-01 2.57064790e-01
      1.14813723e-01 1.63673088e-01 1.02098644e-01 1.06849954e-01
      4.55149487e-02 7.97185376e-02 1.14720270e-01 2.57064790e-01
      2.57064790e-01 1.49959952e-01 2.29733437e-01 1.49449423e-01
      1.33764401e-01 3.97448242e-02 1.08498178e-01 1.44522190e-01
      2.57064790e-01 2.57064790e-01 1.55722275e-01 1.32543251e-01
      8.02260414e-02 4.64916825e-02 3.10323033e-02 1.12821795e-01
      2.12360784e-01 2.57064790e-01 2.57064790e-01 1.43589079e-01
      1.70350000e-01 1.77493185e-01 9.01342779e-02 4.67054695e-02
      5.06799035e-02 5.22284694e-02 2.93252558e-01 2.93252558e-01
      1.73753992e-01 2.46176153e-01 1.16144642e-01 1.00692146e-01
      8.28275681e-02 3.23870517e-02 8.65833536e-02 9.55174416e-02
      2.24915072e-01 1.45865381e-01 6.43804595e-02 5.44783399e-02
      1.21414244e-01 3.18551511e-02 6.06699549e-02 1.75375387e-01
      2.93252558e-01 2.93252558e-01 1.84392422e-01 2.16708407e-01
      1.56032994e-01 9.56464186e-02 7.91307688e-02 3.49233188e-02
      2.24266738e-01 2.49597922e-01 2.93252558e-01 1.72526136e-01
      5.38246222e-02 8.79183114e-02 1.28686056e-01 4.89101894e-02
      8.57375488e-02 7.31779709e-02 1.19039312e-01 1.57851756e-01
      1.17576838e-01 4.23165075e-02 2.54797041e-02 6.49365410e-02
      3.48614044e-02 1.30978733e-01 7.41984695e-02 3.03085566e-01
      3.03085566e-01 3.03085566e-01 2.66815484e-01 6.07398041e-02
      4.22395281e-02 5.39425798e-02 8.54820684e-02 1.19174339e-01
      2.50935763e-01 2.47385100e-01 8.70374218e-02 2.92234980e-02
      4.03936729e-02 6.83985204e-02 5.06320037e-02 1.70096278e-01
      7.23606274e-02 3.03085566e-01 3.03085566e-01 3.03085566e-01
      2.57520199e-01 4.64035831e-02 4.54966649e-02 5.89832664e-02
      2.42708102e-02 1.48873553e-02 1.71426952e-01 3.17735791e-01
      2.72037894e-01 3.08554471e-01 8.16479549e-02 3.80682759e-02
      1.16011620e-01 2.60270704e-02 1.05502214e-02 7.73903728e-02
      3.17735791e-01 9.44911540e-02 1.46809384e-01 1.16096631e-01
      6.32481128e-02 3.04497033e-02 3.99014540e-02 2.03043334e-02
      2.04349160e-01 3.17735791e-01 3.03929597e-01 3.17735791e-01
      2.65361872e-02 2.45453566e-02 4.21161652e-02 2.94864457e-02
      1.60633530e-02 1.08094148e-01 3.17735791e-01 1.30486310e-01
      2.02004999e-01 3.31740268e-02 3.09224091e-02 3.40706259e-01
      1.02672637e-01 3.13189514e-02 1.76373377e-01 5.40423095e-01
      3.42197493e-02 9.89096686e-02 3.10757309e-01 1.73248336e-01 0. 0.
      0. 0. 0. 0. 0. 0. 0. 1.03886232e-01 1.06381930e-01 4.75154631e-02
      1.56525135e-01 5.40423095e-01 7.05305040e-02 2.14264259e-01
      9.86317545e-02 6.89886659e-02 0. 0. 0. 0. 0. 0. 0. 0. 0. 0. 0. 0.
      0. 6.41094372e-02 0. 0. 0. 0. 8.25161173e-04 1.84469332e-03
      1.93402788e-03 1.56504735e-02 6.90381348e-01 2.30691377e-02
      2.85295653e-04 7.32526300e-04 1.48085854e-03 0. 0. 0. 0.
      7.28419870e-02 0. 0. 0. 0. 8.54508020e-04 1.05456286e-03
      1.04812555e-01 1.31334677e-01 6.90381348e-01 3.76128182e-02
      2.21896626e-04 0. 7.28374405e-04 3.92247661e-04 1.27059571e-03
      6.88914210e-02 2.30438516e-01 3.71544987e-01 4.55510989e-02
      1.26889732e-03 4.26731538e-04 5.91055432e-04 4.81075607e-03
      9.37055796e-03 1.07176349e-01 3.71544987e-01 3.71544987e-01
      8.56267437e-02 9.58502758e-03 2.33567203e-03 1.66877266e-03
      3.09451687e-04 2.06575613e-03 1.35750100e-01 2.19103351e-01
      3.71544987e-01 4.88148145e-02 8.90085590e-04 2.94769998e-05
      2.63773632e-04 1.69079402e-03 6.09429926e-03 1.46831021e-01
      3.60766053e-01 3.71544987e-01 7.99288079e-02 1.15297092e-02
      2.18468835e-03 1.68090977e-03 3.43268141e-02 3.82563286e-02
      1.14452258e-01 3.36738795e-01 3.36738795e-01 1.19710825e-01
      4.92649414e-02 8.32099747e-03 8.63286201e-03 2.71967221e-02
      2.11005155e-02 5.67223504e-02 3.36738795e-01 3.36738795e-01
      6.90070018e-02 4.33888994e-02 6.05766242e-03 1.49820363e-02
      1.72219090e-02 2.88910605e-02 9.69660729e-02 3.36738795e-01
      3.36738795e-01 1.59733668e-01 6.46835640e-02 2.09548492e-02
      2.14098897e-02 2.53849030e-02 2.26905700e-02 5.14330827e-02
      3.17925006e-01 3.36738795e-01 9.14609358e-02 5.80419786e-02
      1.74103528e-02 2.97590047e-02 3.84560898e-02 5.87172657e-02
      1.23377457e-01 2.66721547e-01 2.66721547e-01 3.72273028e-02
      4.09467369e-02 4.62814718e-02 2.99986117e-02 1.32711127e-01
      1.34053096e-01 2.38528639e-01 2.66721547e-01 2.66721547e-01
      9.54340398e-02 2.23272637e-01 1.45459682e-01 9.90521237e-02
      7.76858553e-02 3.95887271e-02 8.44261646e-02 2.66721547e-01
      2.66721547e-01 7.10885599e-02 6.88226297e-02 6.33129664e-03
      3.03291008e-02 1.89424753e-01 1.24551013e-01 1.89878345e-01
      2.66721547e-01 2.66721547e-01 1.65798381e-01 2.46196970e-01
      1.03834175e-01 8.79757479e-02 8.49286467e-02 7.63001889e-02
      1.22417584e-01 9.73750502e-02 1.43800482e-01 1.37085497e-01
      2.70963043e-01 1.74240857e-01 8.69638324e-02 8.40912312e-02
      9.89990607e-02 1.75192937e-01 1.22657955e-01 1.51545867e-01
      1.95129886e-01 2.70963043e-01 2.33667076e-01 1.29124269e-01
      1.33391932e-01 8.98998231e-02 9.10115391e-02 1.05095059e-01
      1.41929865e-01 1.80110201e-01 2.70963043e-01 2.27521971e-01
      1.42583758e-01 1.29197091e-01 1.24636263e-01 5.71090318e-02
      7.85703212e-02 1.48061842e-01 2.40805820e-01 2.70963043e-01
      2.70963043e-01 1.70035943e-01 1.23501115e-01 1.12679332e-01
      2.14183450e-01 1.09058701e-01 7.82454908e-02 1.58329666e-01
      2.18506306e-01 1.98485047e-01 1.52368709e-01 1.68030933e-01
      7.35407397e-02 1.52573988e-01 1.23034291e-01 1.25057429e-01
      1.83315367e-01 2.65068263e-01 2.65068263e-01 2.14505672e-01
      8.92952159e-02 8.38434547e-02 6.91523626e-02 3.30175385e-02
      7.33461976e-02 1.47665828e-01 2.65068263e-01 2.65068263e-01
      1.36224598e-01 1.15833655e-01 2.79190149e-02 7.51321167e-02
      3.78507152e-02 1.04812115e-01 1.62166327e-01 2.65068263e-01
      2.65068263e-01 2.36701027e-01 1.16022997e-01 1.28465090e-02
      4.28934582e-02 5.40112779e-02 1.20234020e-01 1.22346260e-01
      2.70228058e-01 2.39887625e-01 1.64045572e-01 1.37865126e-01
      2.77218465e-02 4.91202027e-02 4.92233597e-02 1.25047192e-01
      1.37227833e-01 2.70228058e-01 2.70148009e-01 1.87056169e-01
      1.21184222e-01 2.20155362e-02 3.52380984e-02 6.03724346e-02
      1.45498604e-01 1.65950462e-01 2.70228058e-01 2.70228058e-01
      1.69168890e-01 1.87515974e-01 6.22170493e-02 1.33979976e-01
      1.53436363e-01 1.85451373e-01 1.93545476e-01 2.70228058e-01
      2.49229297e-01 1.44881651e-01 6.21858127e-02 8.84589031e-02
      1.21539190e-01 1.28308386e-01 1.85447514e-01 1.15226179e-01
      2.64257759e-01 1.38277441e-01 1.39975384e-01 5.54914661e-02
      1.49560630e-01 2.29982331e-01 1.66070446e-01 2.06416488e-01
      9.59502384e-02 2.47825310e-01 8.52341354e-02 1.49913207e-01
      9.57459807e-02 1.42016426e-01 2.64257759e-01 2.64257759e-01
      2.27459490e-01 1.30285591e-01 1.80196449e-01 7.17163607e-02
      6.69811592e-02 5.03889844e-02 1.52859837e-01 2.64257759e-01
      2.64257759e-01 2.64257759e-01 1.19377382e-01 1.30030304e-01
      2.94479746e-02 4.57022488e-02 1.48104936e-01 1.08075052e-01
      1.40497282e-01 1.23220921e-01 1.56577259e-01 1.01697005e-01
      2.53513217e-01 9.77092534e-02 2.24987894e-01 2.20482528e-01
      1.47832990e-01 8.59180316e-02 1.21174090e-01 1.13706402e-01
      9.05587673e-02 1.86003506e-01 1.09287627e-01 2.08372459e-01
      1.34517312e-01 7.44216144e-02 2.53513217e-01 1.89508080e-01
      2.12760568e-01 1.26495376e-01 2.53513217e-01 9.38404053e-02
      1.70222878e-01 1.72269061e-01 7.81682879e-02 1.01713523e-01
      1.34178773e-01 1.64608851e-01 1.54078990e-01 2.53513217e-01
      2.10501209e-01 2.35210985e-01 1.54104069e-01 2.44454488e-01
      1.66066408e-01 1.56608284e-01 1.90209225e-01 5.73495068e-02
      1.04557060e-01 7.04297647e-02 9.29728895e-02 6.00375421e-02
      1.86358109e-01 1.39513180e-01 1.73701957e-01 2.60256022e-01
      1.56429142e-01 6.56932518e-02 2.54507679e-02 5.15720285e-02
      1.04572795e-01 2.29567468e-01 1.95410892e-01 9.20164213e-02
      2.60256022e-01 2.16670439e-01 2.60256022e-01 1.96271315e-01
      1.18463472e-01 4.79041226e-02 2.34069332e-01 1.82260126e-01
      9.74778384e-02 2.60256022e-01 2.60256022e-01 1.29358932e-01
      1.00183628e-01 5.18563427e-02 2.46868227e-02 1.14949070e-01
      1.57466590e-01 2.18723759e-01 2.53910780e-01 1.36255652e-01
      6.73639104e-02 3.49757001e-02 3.88255231e-02 1.23031260e-02
      1.38346523e-01 2.65783995e-01 2.65783995e-01 2.65783995e-01
      1.65466696e-01 1.19248271e-01 8.40433016e-02 2.83523854e-02
      2.29249261e-02 1.75242469e-01 2.62734443e-01 1.77174509e-01
      2.65783995e-01 1.15246356e-01 5.08168414e-02 4.68535349e-02
      3.77426594e-02 3.10550560e-03 2.05750585e-01 2.65783995e-01
      2.65783995e-01 2.65783995e-01 2.32164249e-01 7.82319754e-02
      5.91817647e-02 1.81585066e-02 1.54858986e-02 7.39758909e-02
      2.38485143e-01 2.25809723e-01 3.13364536e-01 2.86766827e-01
      1.97588533e-01 1.06495947e-01 2.98992116e-02 6.13512099e-02
      2.62267198e-02 1.28664032e-01 1.31447688e-01 2.64668018e-01
      9.95137393e-02 5.13122790e-02 5.56874983e-02 6.46640882e-02
      7.93722086e-03 9.96888131e-02 2.62135416e-01 3.13364536e-01
      3.13364536e-01 3.13364536e-01 1.32436320e-01 7.20787421e-02
      1.39125586e-02 2.56529003e-02 1.79117657e-02 4.51078564e-02
      8.78057703e-02 3.01915497e-01 1.46890208e-01 5.31511605e-02
      1.79027878e-02 2.43921895e-02 5.77617362e-02 8.92111659e-02
      1.24491319e-01 2.11498484e-01 2.06557304e-01 7.21016824e-02
      3.78768221e-02 4.65377234e-02 5.35632893e-02 5.21149524e-02
      1.89882979e-01 1.18207283e-01 3.04073036e-01 3.04073036e-01
      3.03822666e-01 2.34104708e-01 8.71843174e-02 6.48607612e-02
      3.27178910e-02 5.75564168e-02 6.60674721e-02 9.05213207e-02
      1.96909919e-01 5.07024340e-02 4.50730063e-02 2.83874013e-02
      4.04780768e-02 8.83782655e-02 2.34689370e-01 1.78269178e-01
      3.04073036e-01 3.04073036e-01 2.67986536e-01 1.35347247e-01
      9.87087786e-02 1.79678544e-01 1.23118805e-02 2.96343639e-02
      3.00122146e-02 1.99990764e-01 2.97842115e-01 2.27883741e-01
      2.46866584e-01 5.64880632e-02 1.72381047e-02 8.52939114e-03
      1.09395292e-02 2.49830876e-02 1.55771509e-01 2.97842115e-01
      1.42319143e-01 1.82784334e-01 4.13299650e-02 9.13027581e-03
      4.83052805e-02 5.65993898e-02 5.72249070e-02 2.80211389e-01
      2.97842115e-01 2.79801905e-01 2.14619249e-01 5.42972982e-02
      8.37405920e-02 2.38960627e-02 2.67495215e-02 5.14955595e-02
      2.51700372e-01 2.97842115e-01 2.45814577e-01 2.28697047e-01
      3.11406199e-02 2.69800555e-02 1.65626910e-02 2.49471515e-02
      7.87707344e-02 2.77495116e-01 5.04266202e-01 9.61733162e-02
      1.43492550e-01 3.46878506e-02 1.59538593e-02 0. 0. 0. 0. 0. 0. 0.
      0. 0. 2.28540879e-02 8.72230679e-02 1.82280689e-01 3.47432584e-01
      5.04266202e-01 3.01526308e-01 3.43077093e-01 1.73389371e-02
      2.49530957e-03 0. 0. 0. 0. 0. 0. 0. 0. 0. 0. 0. 0. 0.
      4.96656410e-02 0. 0. 0. 0. 4.08904918e-04 1.87809579e-04
      9.48222876e-02 1.54571682e-01 6.58654869e-01 2.94673480e-02 0. 0.
      4.08904918e-04 0. 0. 0. 0. 5.65177836e-02 0. 0. 0. 0.
      1.84264861e-03 1.25206388e-05 1.17415916e-02 2.78011799e-01
      6.58654869e-01 9.02182460e-02 2.66662277e-02 8.41584150e-03
      2.33253441e-03 2.88102165e-04 2.33032368e-03 1.26854300e-01
      2.09252268e-01 3.90848607e-01 3.09789833e-02 2.63203494e-03
      6.04979054e-04 1.58115732e-03 1.12799183e-03 8.98490660e-03
      1.21955402e-01 2.92152613e-01 3.90848607e-01 6.01793416e-02
      1.71194039e-02 3.98171041e-03 3.24453227e-03 5.86032169e-03
      2.30731014e-02 2.32302491e-02 2.57655591e-01 3.90848607e-01
      1.02826349e-01 6.42407909e-02 3.09005473e-02 4.09936309e-02
      8.86002742e-03 8.34301338e-02 5.16355857e-02 2.27317035e-01
      3.90848607e-01 2.08411723e-01 1.50027782e-01 5.97317256e-02
      6.49900436e-02 5.75944688e-03 3.30062658e-02 8.31054002e-02
      3.23348910e-01 3.23348910e-01 1.51556432e-01 6.49716482e-02
      2.13950444e-02 1.37163419e-02 1.53973475e-02 3.45047526e-02
      6.46141618e-02 2.33669356e-01 3.23348910e-01 9.02136043e-02
      4.96438481e-02 3.97360586e-02 1.72905326e-02 1.25462050e-02
      1.15491852e-01 1.10858671e-01 2.87149578e-01 3.23348910e-01
      3.23348910e-01 1.81269586e-01 6.06246628e-02 4.84760702e-02
